{"learner":{"attributes":{},"feature_names":[],"feature_types":[],"gradient_booster":{"model":{"cats":{"enc":[],"feature_segments":[],"sorted_idx":[]},"gbtree_model_param":{"num_parallel_tree":"1","num_trees":"600"},"iteration_indptr":[0,1,2,3,4,5,6,7,8,9,10,11,12,13,14,15,16,17,18,19,20,21,22,23,24,25,26,27,28,29,30,31,32,33,34,35,36,37,38,39,40,41,42,43,44,45,46,47,48,49,50,51,52,53,54,55,56,57,58,59,60,61,62,63,64,65,66,67,68,69,70,71,72,73,74,75,76,77,78,79,80,81,82,83,84,85,86,87,88,89,90,91,92,93,94,95,96,97,98,99,100,101,102,103,104,105,106,107,108,109,110,111,112,113,114,115,116,117,118,119,120,121,122,123,124,125,126,127,128,129,130,131,132,133,134,135,136,137,138,139,140,141,142,143,144,145,146,147,148,149,150,151,152,153,154,155,156,157,158,159,160,161,162,163,164,165,166,167,168,169,170,171,172,173,174,175,176,177,178,179,180,181,182,183,184,185,186,187,188,189,190,191,192,193,194,195,196,197,198,199,200,201,202,203,204,205,206,207,208,209,210,211,212,213,214,215,216,217,218,219,220,221,222,223,224,225,226,227,228,229,230,231,232,233,234,235,236,237,238,239,240,241,242,243,244,245,246,247,248,249,250,251,252,253,254,255,256,257,258,259,260,261,262,263,264,265,266,267,268,269,270,271,272,273,274,275,276,277,278,279,280,281,282,283,284,285,286,287,288,289,290,291,292,293,294,295,296,297,298,299,300,301,302,303,304,305,306,307,308,309,310,311,312,313,314,315,316,317,318,319,320,321,322,323,324,325,326,327,328,329,330,331,332,333,334,335,336,337,338,339,340,341,342,343,344,345,346,347,348,349,350,351,352,353,354,355,356,357,358,359,360,361,362,363,364,365,366,367,368,369,370,371,372,373,374,375,376,377,378,379,380,381,382,383,384,385,386,387,388,389,390,391,392,393,394,395,396,397,398,399,400,401,402,403,404,405,406,407,408,409,410,411,412,413,414,415,416,417,418,419,420,421,422,423,424,425,426,427,428,429,430,431,432,433,434,435,436,437,438,439,440,441,442,443,444,445,446,447,448,449,450,451,452,453,454,455,456,457,458,459,460,461,462,463,464,465,466,467,468,469,470,471,472,473,474,475,476,477,478,479,480,481,482,483,484,485,486,487,488,489,490,491,492,493,494,495,496,497,498,499,500,501,502,503,504,505,506,507,508,509,510,511,512,513,514,515,516,517,518,519,520,521,522,523,524,525,526,527,528,529,530,531,532,533,534,535,536,537,538,539,540,541,542,543,544,545,546,547,548,549,550,551,552,553,554,555,556,557,558,559,560,561,562,563,564,565,566,567,568,569,570,571,572,573,574,575,576,577,578,579,580,581,582,583,584,585,586,587,588,589,590,591,592,593,594,595,596,597,598,599,600],"tree_info":[0,0,0,0,0,0,0,0,0,0,0,0,0,0,0,0,0,0,0,0,0,0,0,0,0,0,0,0,0,0,0,0,0,0,0,0,0,0,0,0,0,0,0,0,0,0,0,0,0,0,0,0,0,0,0,0,0,0,0,0,0,0,0,0,0,0,0,0,0,0,0,0,0,0,0,0,0,0,0,0,0,0,0,0,0,0,0,0,0,0,0,0,0,0,0,0,0,0,0,0,0,0,0,0,0,0,0,0,0,0,0,0,0,0,0,0,0,0,0,0,0,0,0,0,0,0,0,0,0,0,0,0,0,0,0,0,0,0,0,0,0,0,0,0,0,0,0,0,0,0,0,0,0,0,0,0,0,0,0,0,0,0,0,0,0,0,0,0,0,0,0,0,0,0,0,0,0,0,0,0,0,0,0,0,0,0,0,0,0,0,0,0,0,0,0,0,0,0,0,0,0,0,0,0,0,0,0,0,0,0,0,0,0,0,0,0,0,0,0,0,0,0,0,0,0,0,0,0,0,0,0,0,0,0,0,0,0,0,0,0,0,0,0,0,0,0,0,0,0,0,0,0,0,0,0,0,0,0,0,0,0,0,0,0,0,0,0,0,0,0,0,0,0,0,0,0,0,0,0,0,0,0,0,0,0,0,0,0,0,0,0,0,0,0,0,0,0,0,0,0,0,0,0,0,0,0,0,0,0,0,0,0,0,0,0,0,0,0,0,0,0,0,0,0,0,0,0,0,0,0,0,0,0,0,0,0,0,0,0,0,0,0,0,0,0,0,0,0,0,0,0,0,0,0,0,0,0,0,0,0,0,0,0,0,0,0,0,0,0,0,0,0,0,0,0,0,0,0,0,0,0,0,0,0,0,0,0,0,0,0,0,0,0,0,0,0,0,0,0,0,0,0,0,0,0,0,0,0,0,0,0,0,0,0,0,0,0,0,0,0,0,0,0,0,0,0,0,0,0,0,0,0,0,0,0,0,0,0,0,0,0,0,0,0,0,0,0,0,0,0,0,0,0,0,0,0,0,0,0,0,0,0,0,0,0,0,0,0,0,0,0,0,0,0,0,0,0,0,0,0,0,0,0,0,0,0,0,0,0,0,0,0,0,0,0,0,0,0,0,0,0,0,0,0,0,0,0,0,0,0,0,0,0,0,0,0,0,0,0,0,0,0,0,0,0,0,0,0,0,0,0,0,0,0,0,0,0,0,0,0,0,0,0,0,0,0,0,0,0,0,0,0,0,0,0,0,0,0,0,0,0,0,0,0,0,0,0,0,0,0,0,0,0,0,0,0,0,0,0,0,0,0,0,0,0,0,0,0,0,0,0,0,0,0,0,0,0,0,0,0],"trees":[{"base_weights":[-2.3334438E-3,-4.7322914E-2,1.9011388E0,-1.00521296E-1,3.4547228E-1,1.4553776E0,3.930469E0,-1.2635379E-1,1.4140161E-2,2.11646E-1,5.3618944E-1,1.1346073E0,9.00816E-2,5.0583977E-2,2.038585E-1,-1.35934E-1,-8.5634016E-2,-1.5462971E-2,8.378284E-2,1.5107833E-1,3.0062783E-1,4.1049975E-1,6.3803124E-1,2.8298793E-2,6.018064E-2,-6.974985E-3,-6.08482E-3,-9.4964035E-2,-5.868392E-2,-3.364461E-2,1.7012589E-2,6.465501E-2,1.7191584E-1,6.0875997E-2,1.7103285E-1,1.1567875E-2,1.8055739E-2,1.5971767E-2,2.2622345E-2,5.506595E-1,4.176407E-2,-5.2405167E-3,-4.198997E-3,-3.7076012E-3,-2.4139672E-3,-2.2573418E-3,-5.72166E-4,-7.8720733E-4,1.4625227E-3,1.9311414E-3,4.7516325E-3,5.7244054E-3,9.601696E-3,9.795672E-5,3.8427587E-3,6.807845E-3,1.0457008E-2,2.1279566E-2,2.9608194E-2],"categories":[],"categories_nodes":[],"categories_segments":[],"categories_sizes":[],"default_left":[0,0,0,0,0,0,0,0,0,0,0,0,0,0,0,0,0,0,0,0,0,0,0,0,0,0,0,0,0,0,0,0,0,0,0,0,0,0,0,0,0,0,0,0,0,0,0,0,0,0,0,0,0,0,0,0,0,0,0],"id":0,"left_children":[1,3,5,7,9,11,13,15,17,19,21,23,-1,-1,-1,25,27,29,31,33,35,37,39,-1,-1,-1,-1,41,43,45,47,49,51,53,55,-1,-1,-1,-1,57,-1,-1,-1,-1,-1,-1,-1,-1,-1,-1,-1,-1,-1,-1,-1,-1,-1,-1,-1],"loss_changes":[3.0041614E2,7.164555E1,6.7552E1,8.944035E0,1.0325405E1,5.508499E0,1.8698578E0,9.495735E-1,1.147568E0,1.2588215E0,1.8885651E0,8.098564E-1,0E0,0E0,0E0,8.420563E-2,1.1310887E-1,2.3144177E-1,2.6872635E-1,2.523799E-1,3.2287788E-1,1.5342522E-1,1.1083488E0,0E0,0E0,0E0,0E0,2.8943777E-2,1.6376406E-2,6.35798E-2,5.6983538E-2,1.0545945E-1,1.1519194E-2,2.6209831E-2,1.2967849E-1,0E0,0E0,0E0,0E0,9.057617E-2,0E0,0E0,0E0,0E0,0E0,0E0,0E0,0E0,0E0,0E0,0E0,0E0,0E0,0E0,0E0,0E0,0E0,0E0,0E0],"parents":[2147483647,0,0,1,1,2,2,3,3,4,4,5,5,6,6,7,7,8,8,9,9,10,10,11,11,15,15,16,16,17,17,18,18,19,19,20,20,21,21,22,22,27,27,28,28,29,29,30,30,31,31,32,32,33,33,34,34,39,39],"right_children":[2,4,6,8,10,12,14,16,18,20,22,24,-1,-1,-1,26,28,30,32,34,36,38,40,-1,-1,-1,-1,42,44,46,48,50,52,54,56,-1,-1,-1,-1,58,-1,-1,-1,-1,-1,-1,-1,-1,-1,-1,-1,-1,-1,-1,-1,-1,-1,-1,-1],"split_conditions":[2.4687016E0,9.762066E-1,6.076273E0,4.919006E-1,4.8141E-1,1.6258949E0,2.38E-1,2.5800863E-1,9.705E-2,1.473E-1,1.5334284E0,1.71775E-1,9.00816E-2,5.0583977E-2,2.038585E-1,1.2798242E-1,4.5075E-2,6.925253E-1,1.67325E-1,1.1629251E-1,1.2571907E0,2.50825E-1,3.21575E-1,2.8298793E-2,6.018064E-2,-6.974985E-3,-6.08482E-3,3.4461978E-1,3.8975728E-1,6.3475E-2,9.228975E-2,7.6587194E-1,7.806025E-1,5.67625E-2,1.2144444E0,1.1567875E-2,1.8055739E-2,1.5971767E-2,2.2622345E-2,2.145E-1,4.176407E-2,-5.2405167E-3,-4.198997E-3,-3.7076012E-3,-2.4139672E-3,-2.2573418E-3,-5.72166E-4,-7.8720733E-4,1.4625227E-3,1.9311414E-3,4.7516325E-3,5.7244054E-3,9.601696E-3,9.795672E-5,3.8427587E-3,6.807845E-3,1.0457008E-2,2.1279566E-2,2.9608194E-2],"split_indices":[1,1,1,1,6,6,2,1,2,2,1,2,0,0,0,1,2,1,2,6,1,2,2,0,0,0,0,1,1,2,6,1,1,6,1,0,0,0,0,2,0,0,0,0,0,0,0,0,0,0,0,0,0,0,0,0,0,0,0],"split_type":[0,0,0,0,0,0,0,0,0,0,0,0,0,0,0,0,0,0,0,0,0,0,0,0,0,0,0,0,0,0,0,0,0,0,0,0,0,0,0,0,0,0,0,0,0,0,0,0,0,0,0,0,0,0,0,0,0,0,0],"sum_hessian":[3.506E3,3.426E3,8E1,3.018E3,4.08E2,6.7E1,1.3E1,2.463E3,5.55E2,2.41E2,1.67E2,3.7E1,3E1,1E0,1.2E1,1.992E3,4.71E2,3.9E2,1.65E2,1.45E2,9.6E1,7.7E1,9E1,5E0,3.2E1,1.586E3,4.06E2,3.48E2,1.23E2,2.5E2,1.4E2,1.37E2,2.8E1,2.7E1,1.18E2,4.7E1,4.9E1,2.7E1,5E1,6.5E1,2.5E1,1.79E2,1.69E2,4.7E1,7.6E1,1.64E2,8.6E1,3.8E1,1.02E2,7.5E1,6.2E1,9E0,1.9E1,6E0,2.1E1,6.4E1,5.4E1,1.9E1,4.6E1],"tree_param":{"num_deleted":"0","num_feature":"9","num_nodes":"59","size_leaf_vector":"1"}},{"base_weights":[4.6461322E-3,-4.2598974E-2,1.8840791E0,-9.365195E-2,3.439421E-1,1.383092E0,3.8656092E0,-1.203016E-1,1.6636191E-2,2.1808083E-1,5.2125376E-1,1.0463766E0,8.803823E-2,4.9319383E-2,1.9919556E-1,-1.2937333E-1,-8.114794E-2,-1.0013048E-2,8.402813E-2,1.4393775E-1,2.8284344E-1,4.3208432E-1,6.8575466E-1,3.3423867E-2,5.9222963E-2,-6.6332915E-3,-5.845604E-3,-9.1997154E-2,-6.1893463E-2,-3.2049533E-2,1.775923E-2,6.0411125E-2,1.497489E-1,5.6861445E-2,1.631958E-1,2.3249206E-1,3.4361532E-1,1.7762823E-2,2.4573354E-2,2.6163353E-2,3.7972175E-2,-5.0527384E-3,-4.1723247E-3,-3.654437E-3,-2.5858989E-3,-2.5691402E-3,-8.3875697E-4,-9.1363624E-4,1.5555522E-3,6.255613E-4,3.9348337E-3,5.0920695E-3,9.104249E-3,5.5192516E-4,3.6677574E-3,5.177504E-3,8.865077E-3,2.7045363E-3,1.1712146E-2,1.7508857E-2,5.657589E-3],"categories":[],"categories_nodes":[],"categories_segments":[],"categories_sizes":[],"default_left":[0,0,0,0,0,0,0,0,0,0,0,0,0,0,0,0,0,0,0,0,0,0,0,0,0,0,0,0,0,0,0,0,0,0,0,0,0,0,0,0,0,0,0,0,0,0,0,0,0,0,0,0,0,0,0,0,0,0,0,0,0],"id":1,"left_children":[1,3,5,7,9,11,13,15,17,19,21,23,-1,-1,-1,25,27,29,31,33,35,37,39,-1,-1,-1,-1,41,43,45,47,49,51,53,55,57,59,-1,-1,-1,-1,-1,-1,-1,-1,-1,-1,-1,-1,-1,-1,-1,-1,-1,-1,-1,-1,-1,-1,-1,-1],"loss_changes":[3.1503262E2,6.833183E1,8.102026E1,8.989889E0,8.902256E0,7.1865234E0,1.8608246E0,8.643379E-1,1.071224E0,1.1020927E0,2.153328E0,1.2954674E0,0E0,0E0,0E0,6.6467285E-2,9.165144E-2,2.625066E-1,2.5326312E-1,1.802125E-1,3.0566597E-1,3.3181572E-1,2.8509903E-1,0E0,0E0,0E0,0E0,1.4492273E-2,1.5699863E-2,6.971568E-2,9.197596E-2,1.09375745E-1,4.9618483E-2,1.5817642E-2,5.9044123E-2,9.819269E-3,4.355097E-2,0E0,0E0,0E0,0E0,0E0,0E0,0E0,0E0,0E0,0E0,0E0,0E0,0E0,0E0,0E0,0E0,0E0,0E0,0E0,0E0,0E0,0E0,0E0,0E0],"parents":[2147483647,0,0,1,1,2,2,3,3,4,4,5,5,6,6,7,7,8,8,9,9,10,10,11,11,15,15,16,16,17,17,18,18,19,19,20,20,21,21,22,22,27,27,28,28,29,29,30,30,31,31,32,32,33,33,34,34,35,35,36,36],"right_children":[2,4,6,8,10,12,14,16,18,20,22,24,-1,-1,-1,26,28,30,32,34,36,38,40,-1,-1,-1,-1,42,44,46,48,50,52,54,56,58,60,-1,-1,-1,-1,-1,-1,-1,-1,-1,-1,-1,-1,-1,-1,-1,-1,-1,-1,-1,-1,-1,-1,-1,-1],"split_conditions":[2.4687016E0,1.0165408E0,6.076273E0,4.919006E-1,5.064626E-1,1.6258949E0,7.2212255E-1,2.5800863E-1,2.012275E-1,2.9649502E-1,1.7896118E0,7.966775E-1,8.803823E-2,4.9319383E-2,1.9919556E-1,1.21055864E-1,3.939907E-1,6.710953E-1,3.5815E-1,1.1629251E-1,1.3682551E0,1.3682551E0,6.8197244E-1,3.3423867E-2,5.9222963E-2,-6.6332915E-3,-5.845604E-3,3.955E-2,6.8114385E-2,8.7951235E-2,8.66325E-2,6.865863E-1,8.2014024E-1,2.0479698E-2,1.0742527E0,6E1,5.712925E-1,1.7762823E-2,2.4573354E-2,2.6163353E-2,3.7972175E-2,-5.0527384E-3,-4.1723247E-3,-3.654437E-3,-2.5858989E-3,-2.5691402E-3,-8.3875697E-4,-9.1363624E-4,1.5555522E-3,6.255613E-4,3.9348337E-3,5.0920695E-3,9.104249E-3,5.5192516E-4,3.6677574E-3,5.177504E-3,8.865077E-3,2.7045363E-3,1.1712146E-2,1.7508857E-2,5.657589E-3],"split_indices":[1,1,1,1,6,6,6,1,6,6,1,6,0,0,0,1,1,1,6,6,1,1,6,0,0,0,0,6,6,6,6,1,1,7,1,3,7,0,0,0,0,0,0,0,0,0,0,0,0,0,0,0,0,0,0,0,0,0,0,0,0],"split_type":[0,0,0,0,0,0,0,0,0,0,0,0,0,0,0,0,0,0,0,0,0,0,0,0,0,0,0,0,0,0,0,0,0,0,0,0,0,0,0,0,0,0,0,0,0,0,0,0,0,0,0,0,0,0,0,0,0,0,0,0,0],"sum_hessian":[3.546E3,3.46E3,8.6E1,3.057E3,4.03E2,7E1,1.6E1,2.462E3,5.95E2,2.37E2,1.66E2,3.9E1,3.1E1,1E0,1.5E1,1.997E3,4.65E2,4.27E2,1.68E2,1.12E2,1.25E2,1.1E2,5.6E1,1.2E1,2.7E1,1.572E3,4.25E2,2.95E2,1.7E2,2.38E2,1.89E2,1.25E2,4.3E1,2.1E1,9.1E1,7.1E1,5.4E1,5.1E1,5.9E1,2E1,3.6E1,1.38E2,1.57E2,7.8E1,9.2E1,1.04E2,1.34E2,5.1E1,1.38E2,3.5E1,9E1,1.9E1,2.4E1,6E0,1.5E1,1.9E1,7.2E1,1E0,7E1,5.2E1,2E0],"tree_param":{"num_deleted":"0","num_feature":"9","num_nodes":"61","size_leaf_vector":"1"}},{"base_weights":[-1.1324193E-3,-4.482226E-2,1.6144644E0,-9.1092184E-2,2.9818255E-1,1.2319996E0,3.3780758E0,-1.1601905E-1,5.245917E-3,1.9087052E-1,4.841574E-1,7.3093903E-1,1.4545577E0,4.8086394E-2,1.7375253E-1,-1.2386002E-1,-8.554367E-2,-2.6753116E-2,5.5867337E-2,1.1761382E-1,2.4776715E-1,4.163977E-1,6.22351E-1,2.040986E-2,3.855325E-2,6.144273E-2,8.968854E-2,-6.3140127E-3,-5.705805E-3,-9.549777E-2,-6.9421425E-2,-4.069987E-2,4.912896E-3,3.2795716E-2,1.09886505E-1,3.9700102E-2,1.408045E-1,1.9192007E-1,1.4765973E-2,1.6395075E-2,2.2413708E-2,1.6537566E-2,3.245951E-2,-5.0608497E-3,-4.330747E-3,-4.171602E-3,-3.115738E-3,-2.5754503E-3,-1.0350611E-3,-1.0509713E-3,8.990499E-4,-2.7884386E-4,2.3272238E-3,4.160504E-3,6.9445833E-3,2.9887755E-3,5.9690274E-4,6.3627586E-3,1.4067297E-2,5.6929844E-3,1.0007797E-2],"categories":[],"categories_nodes":[],"categories_segments":[],"categories_sizes":[],"default_left":[0,0,0,0,0,0,0,0,0,0,0,0,0,0,0,0,0,0,0,0,0,0,0,0,0,0,0,0,0,0,0,0,0,0,0,0,0,0,0,0,0,0,0,0,0,0,0,0,0,0,0,0,0,0,0,0,0,0,0,0,0],"id":2,"left_children":[1,3,5,7,9,11,13,15,17,19,21,23,25,-1,-1,27,29,31,33,35,37,39,41,-1,-1,-1,-1,-1,-1,43,45,47,49,51,53,55,57,59,-1,-1,-1,-1,-1,-1,-1,-1,-1,-1,-1,-1,-1,-1,-1,-1,-1,-1,-1,-1,-1,-1,-1],"loss_changes":[2.4930858E2,5.460687E1,5.8568497E1,7.27927E0,8.070141E0,7.6349792E0,4.07135E-1,5.648155E-1,1.0122726E0,1.0587234E0,1.1360855E0,2.196312E-2,1.8534775E0,0E0,0E0,3.0700684E-2,7.296991E-2,1.6934732E-1,2.980032E-1,2.0400727E-1,3.3104706E-1,1.4356804E-1,1.5311432E-1,0E0,0E0,0E0,0E0,0E0,0E0,6.6771507E-3,1.4017701E-2,5.6434423E-2,4.036653E-2,9.047498E-2,4.4153094E-2,1.4891759E-2,1.3367498E-1,2.2212982E-2,0E0,0E0,0E0,0E0,0E0,0E0,0E0,0E0,0E0,0E0,0E0,0E0,0E0,0E0,0E0,0E0,0E0,0E0,0E0,0E0,0E0,0E0,0E0],"parents":[2147483647,0,0,1,1,2,2,3,3,4,4,5,5,6,6,7,7,8,8,9,9,10,10,11,11,12,12,15,15,16,16,17,17,18,18,19,19,20,20,21,21,22,22,29,29,30,30,31,31,32,32,33,33,34,34,35,35,36,36,37,37],"right_children":[2,4,6,8,10,12,14,16,18,20,22,24,26,-1,-1,28,30,32,34,36,38,40,42,-1,-1,-1,-1,-1,-1,44,46,48,50,52,54,56,58,60,-1,-1,-1,-1,-1,-1,-1,-1,-1,-1,-1,-1,-1,-1,-1,-1,-1,-1,-1,-1,-1,-1,-1],"split_conditions":[2.2906268E0,9.762066E-1,6.076273E0,4.4899532E-1,5.064626E-1,1.02234E0,7.2212255E-1,2.2012141E-1,7.0420593E-1,2.6549E-1,7.966775E-1,5.254975E-1,3.8087301E0,4.8086394E-2,1.7375253E-1,1.0584575E-1,3.4461978E-1,1.48055E-1,2.5059503E-1,1.1629251E-1,1.2571907E0,1.2775658E0,1.3192677E0,2.040986E-2,3.855325E-2,6.144273E-2,8.968854E-2,-6.3140127E-3,-5.705805E-3,4.1185E-2,4.45125E-2,5.8740664E-1,5.6074244E-1,1.0563E-1,3.813225E-1,2.5800001E1,1.6579603E0,1.0165408E0,1.4765973E-2,1.6395075E-2,2.2413708E-2,1.6537566E-2,3.245951E-2,-5.0608497E-3,-4.330747E-3,-4.171602E-3,-3.115738E-3,-2.5754503E-3,-1.0350611E-3,-1.0509713E-3,8.990499E-4,-2.7884386E-4,2.3272238E-3,4.160504E-3,6.9445833E-3,2.9887755E-3,5.9690274E-4,6.3627586E-3,1.4067297E-2,5.6929844E-3,1.0007797E-2],"split_indices":[1,1,1,1,6,6,6,1,1,6,6,6,1,0,0,1,1,6,6,6,1,1,1,0,0,0,0,0,0,6,6,1,1,6,6,0,1,1,0,0,0,0,0,0,0,0,0,0,0,0,0,0,0,0,0,0,0,0,0,0,0],"split_type":[0,0,0,0,0,0,0,0,0,0,0,0,0,0,0,0,0,0,0,0,0,0,0,0,0,0,0,0,0,0,0,0,0,0,0,0,0,0,0,0,0,0,0,0,0,0,0,0,0,0,0,0,0,0,0,0,0,0,0,0,0],"sum_hessian":[3.53E3,3.438E3,9.2E1,3.03E3,4.08E2,7.7E1,1.5E1,2.407E3,6.23E2,2.6E2,1.48E2,2.5E1,5.2E1,1E0,1.4E1,1.912E3,4.95E2,3.82E2,2.41E2,1.15E2,1.45E2,1.02E2,4.6E1,4E0,2.1E1,3.4E1,1.8E1,1.522E3,3.9E2,3.03E2,1.92E2,2.65E2,1.17E2,1.7E2,7.1E1,2.7E1,8.8E1,6.9E1,7.6E1,3E1,7.2E1,5E0,4.1E1,1.78E2,1.25E2,6.1E1,1.31E2,1.71E2,9.4E1,3.9E1,7.8E1,4.5E1,1.25E2,3.9E1,3.2E1,1.5E1,1.2E1,8.2E1,6E0,8E0,6.1E1],"tree_param":{"num_deleted":"0","num_feature":"9","num_nodes":"61","size_leaf_vector":"1"}},{"base_weights":[-5.6391025E-5,-3.519833E-2,1.8066536E0,-8.498956E-2,3.2770032E-1,1.321385E0,3.4331772E0,-1.0819413E-1,1.4172708E-2,2.0810124E-1,5.242189E-1,3.5224006E-2,1.4998065E0,4.6884235E-2,1.7722248E-1,-1.15777336E-1,-6.929048E-2,-1.4461895E-2,7.750003E-2,1.7657763E-1,3.6601153E-1,4.1422886E-1,6.941337E-1,6.0060244E-2,8.5154474E-2,-1.1893311E-1,-9.980291E-2,-7.658287E-2,-4.368855E-2,-2.9159004E-2,1.3054427E-2,4.8505332E-2,1.14689246E-1,9.6593484E-2,2.1672876E-1,1.3100711E-2,1.9479303E-2,1.8187629E-2,2.4806771E-2,2.6863644E-2,4.1915707E-2,-6.0140355E-3,-5.6262803E-3,-5.1000747E-3,-4.2620893E-3,-4.114421E-3,-3.2702484E-3,-2.903037E-3,-1.8302108E-3,-1.9486764E-3,-4.5993013E-4,-1.0538179E-3,1.2048349E-3,1.9550575E-3,4.7166278E-3,4.308389E-3,7.5917654E-3,1.5589816E-3,5.7456535E-3,8.702925E-3,1.2167965E-2],"categories":[],"categories_nodes":[],"categories_segments":[],"categories_sizes":[],"default_left":[0,0,0,0,0,0,0,0,0,0,0,0,0,0,0,0,0,0,0,0,0,0,0,0,0,0,0,0,0,0,0,0,0,0,0,0,0,0,0,0,0,0,0,0,0,0,0,0,0,0,0,0,0,0,0,0,0,0,0,0,0],"id":3,"left_children":[1,3,5,7,9,11,13,15,17,19,21,-1,23,-1,-1,25,27,29,31,33,35,37,39,-1,-1,41,43,45,47,49,51,53,55,57,59,-1,-1,-1,-1,-1,-1,-1,-1,-1,-1,-1,-1,-1,-1,-1,-1,-1,-1,-1,-1,-1,-1,-1,-1,-1,-1],"loss_changes":[2.2628307E2,6.3197674E1,4.9135925E1,7.077162E0,9.809364E0,4.887146E0,8.415985E-1,7.271519E-1,1.0601188E0,1.2495375E0,2.6840096E0,0E0,4.4297028E-1,0E0,0E0,9.318924E-2,7.301438E-2,1.6335803E-1,1.9068575E-1,6.92008E-1,3.3454895E-3,2.2882843E-1,9.291878E-1,0E0,0E0,1.4457703E-3,2.5103092E-3,1.4835E-2,7.3437393E-3,5.116369E-2,5.364814E-2,4.1132107E-2,7.061398E-2,8.749199E-2,1.2468195E-1,0E0,0E0,0E0,0E0,0E0,0E0,0E0,0E0,0E0,0E0,0E0,0E0,0E0,0E0,0E0,0E0,0E0,0E0,0E0,0E0,0E0,0E0,0E0,0E0,0E0,0E0],"parents":[2147483647,0,0,1,1,2,2,3,3,4,4,5,5,6,6,7,7,8,8,9,9,10,10,12,12,15,15,16,16,17,17,18,18,19,19,20,20,21,21,22,22,25,25,26,26,27,27,28,28,29,29,30,30,31,31,32,32,33,33,34,34],"right_children":[2,4,6,8,10,12,14,16,18,20,22,-1,24,-1,-1,26,28,30,32,34,36,38,40,-1,-1,42,44,46,48,50,52,54,56,58,60,-1,-1,-1,-1,-1,-1,-1,-1,-1,-1,-1,-1,-1,-1,-1,-1,-1,-1,-1,-1,-1,-1,-1,-1,-1,-1],"split_conditions":[2.6778321E0,1.0165408E0,6.076273E0,4.919006E-1,2.2165E-1,1.02234E0,2.38E-1,2.8219852E-1,9.705E-2,1.6579603E0,1.7896118E0,3.5224006E-2,3.8087301E0,4.6884235E-2,1.7722248E-1,1.6397204E-1,5.0875E-2,6.925253E-1,8.2014024E-1,2.5059503E-1,1.329E-1,1.485654E0,3.057E-1,6.0060244E-2,8.5154474E-2,8.287646E-2,2.89E-2,3.939907E-1,3.939907E-1,6.3475E-2,4.8675E-2,1.473E-1,1.39975E-1,6.29E-2,1.55775E-1,1.3100711E-2,1.9479303E-2,1.8187629E-2,2.4806771E-2,2.6863644E-2,4.1915707E-2,-6.0140355E-3,-5.6262803E-3,-5.1000747E-3,-4.2620893E-3,-4.114421E-3,-3.2702484E-3,-2.903037E-3,-1.8302108E-3,-1.9486764E-3,-4.5993013E-4,-1.0538179E-3,1.2048349E-3,1.9550575E-3,4.7166278E-3,4.308389E-3,7.5917654E-3,1.5589816E-3,5.7456535E-3,8.702925E-3,1.2167965E-2],"split_indices":[1,1,1,1,2,6,2,1,2,1,1,0,1,0,0,1,2,1,1,6,2,1,2,0,0,1,2,1,1,2,2,2,2,2,2,0,0,0,0,0,0,0,0,0,0,0,0,0,0,0,0,0,0,0,0,0,0,0,0,0,0],"split_type":[0,0,0,0,0,0,0,0,0,0,0,0,0,0,0,0,0,0,0,0,0,0,0,0,0,0,0,0,0,0,0,0,0,0,0,0,0,0,0,0,0,0,0,0,0,0,0,0,0,0,0,0,0,0,0,0,0,0,0,0,0],"sum_hessian":[3.562E3,3.495E3,6.7E1,3.074E3,4.21E2,5.3E1,1.4E1,2.491E3,5.83E2,2.63E2,1.58E2,1.3E1,4E1,1E0,1.3E1,2.083E3,4.08E2,4.02E2,1.81E2,2.21E2,4.2E1,9.8E1,6E1,1.9E1,2.1E1,1.734E3,3.49E2,3.16E2,9.2E1,2.62E2,1.4E2,1.03E2,7.8E1,7.5E1,1.46E2,1E1,3.2E1,6.4E1,3.4E1,3.1E1,2.9E1,1.418E3,3.16E2,2.98E2,5.1E1,2.05E2,1.11E2,2.8E1,6.4E1,1.75E2,8.7E1,3.4E1,1.06E2,8.7E1,1.6E1,4.6E1,3.2E1,1.7E1,5.8E1,5.9E1,8.7E1],"tree_param":{"num_deleted":"0","num_feature":"9","num_nodes":"61","size_leaf_vector":"1"}},{"base_weights":[4.830954E-4,-3.4419637E-2,1.6651428E0,-8.050216E-2,3.0193236E-1,1.2445425E0,1.659367E-1,-1.0306312E-1,1.5649455E-2,2.0387955E-1,5.0306463E-1,3.261879E-2,1.4142748E0,-1.1080194E-1,-6.893889E-2,-1.3664734E-2,5.6332458E-2,1.7400368E-1,3.4828544E-1,3.4959143E-1,6.0106415E-1,5.8633763E-2,8.172735E-2,-5.67436E-3,-4.904612E-3,-7.843182E-2,-5.2254945E-2,-3.3795115E-2,8.300991E-3,2.3726001E-2,9.4306454E-2,9.102035E-2,2.0959137E-1,1.835387E-2,1.1407766E-2,1.1411951E-2,1.8126685E-2,2.7136786E-2,3.8141698E-2,-4.358306E-3,-3.5648171E-3,-3.167238E-3,-2.120263E-3,-2.3138346E-3,-1.0746387E-3,-6.645266E-4,1.01313E-3,-8.216856E-4,1.6215349E-3,3.8019163E-3,7.287137E-3,1.2042135E-3,5.0714025E-3,8.34578E-3,1.1957076E-2],"categories":[],"categories_nodes":[],"categories_segments":[],"categories_sizes":[],"default_left":[0,0,0,0,0,0,0,0,0,0,0,0,0,0,0,0,0,0,0,0,0,0,0,0,0,0,0,0,0,0,0,0,0,0,0,0,0,0,0,0,0,0,0,0,0,0,0,0,0,0,0,0,0,0,0],"id":4,"left_children":[1,3,5,7,9,11,-1,13,15,17,19,-1,21,23,25,27,29,31,33,35,37,-1,-1,-1,-1,39,41,43,45,47,49,51,53,-1,-1,-1,-1,-1,-1,-1,-1,-1,-1,-1,-1,-1,-1,-1,-1,-1,-1,-1,-1,-1,-1],"loss_changes":[2.037019E2,5.3251137E1,4.594574E1,6.554987E0,8.062172E0,5.0074463E0,0E0,6.385689E-1,6.865086E-1,1.1473885E0,1.8203125E0,0E0,4.7800446E-1,5.6886673E-2,6.7964315E-2,1.484103E-1,2.9616797E-1,6.7196846E-1,2.2350788E-2,3.636837E-3,3.5028076E-1,0E0,0E0,0E0,0E0,1.1734605E-2,1.5664697E-2,2.5877103E-2,4.1850664E-2,4.632768E-2,9.3218565E-2,4.771602E-2,1.6563845E-1,0E0,0E0,0E0,0E0,0E0,0E0,0E0,0E0,0E0,0E0,0E0,0E0,0E0,0E0,0E0,0E0,0E0,0E0,0E0,0E0,0E0,0E0],"parents":[2147483647,0,0,1,1,2,2,3,3,4,4,5,5,7,7,8,8,9,9,10,10,12,12,13,13,14,14,15,15,16,16,17,17,18,18,19,19,20,20,25,25,26,26,27,27,28,28,29,29,30,30,31,31,32,32],"right_children":[2,4,6,8,10,12,-1,14,16,18,20,-1,22,24,26,28,30,32,34,36,38,-1,-1,-1,-1,40,42,44,46,48,50,52,54,-1,-1,-1,-1,-1,-1,-1,-1,-1,-1,-1,-1,-1,-1,-1,-1,-1,-1,-1,-1,-1,-1],"split_conditions":[2.6778321E0,1.0165408E0,6.076273E0,4.919006E-1,5.712925E-1,1.02234E0,1.659367E-1,2.6486441E-1,1.63725E-1,1.6085476E0,1.5334284E0,3.261879E-2,3.8087301E0,1.3854708E-1,3.939907E-1,6.594878E-1,7.6587194E-1,2.39945E-1,3.5100002E1,1.1433624E0,2.2906268E0,5.8633763E-2,8.172735E-2,-5.67436E-3,-4.904612E-3,3.8165003E-2,6.8114385E-2,8.66325E-2,9.228975E-2,5.50055E-1,3.813225E-1,9.40525E-2,1.2007468E0,1.835387E-2,1.1407766E-2,1.1411951E-2,1.8126685E-2,2.7136786E-2,3.8141698E-2,-4.358306E-3,-3.5648171E-3,-3.167238E-3,-2.120263E-3,-2.3138346E-3,-1.0746387E-3,-6.645266E-4,1.01313E-3,-8.216856E-4,1.6215349E-3,3.8019163E-3,7.287137E-3,1.2042135E-3,5.0714025E-3,8.34578E-3,1.1957076E-2],"split_indices":[1,1,1,1,6,6,0,1,6,1,1,0,1,1,1,1,1,6,0,1,1,0,0,0,0,6,6,6,6,1,6,6,1,0,0,0,0,0,0,0,0,0,0,0,0,0,0,0,0,0,0,0,0,0,0],"split_type":[0,0,0,0,0,0,0,0,0,0,0,0,0,0,0,0,0,0,0,0,0,0,0,0,0,0,0,0,0,0,0,0,0,0,0,0,0,0,0,0,0,0,0,0,0,0,0,0,0,0,0,0,0,0,0],"sum_hessian":[3.504E3,3.433E3,7.1E1,3.02E3,4.13E2,5.8E1,1.3E1,2.446E3,5.74E2,2.79E2,1.34E2,1.4E1,4.4E1,1.992E3,4.54E2,3.34E2,2.4E2,2.33E2,4.6E1,5.4E1,8E1,2.4E1,2E1,1.638E3,3.54E2,2.87E2,1.67E2,1.74E2,1.6E2,1.3E2,1.1E2,7.1E1,1.62E2,3.8E1,8E0,7E0,4.7E1,6.2E1,1.8E1,1.24E2,1.63E2,7.6E1,9.1E1,8.5E1,8.9E1,5.7E1,1.03E2,2.3E1,1.07E2,8.3E1,2.7E1,1E1,6.1E1,6.9E1,9.3E1],"tree_param":{"num_deleted":"0","num_feature":"9","num_nodes":"55","size_leaf_vector":"1"}},{"base_weights":[-7.092634E-4,-3.7102893E-2,1.488869E0,-7.853482E-2,2.6160714E-1,1.1648673E0,3.0488157E0,-1.00026764E-1,2.7535625E-3,1.7349972E-1,4.410109E-1,8.8502514E-1,7.100627E-2,4.1563712E-2,1.5777259E-1,-1.06343046E-1,-7.490583E-2,-1.833456E-2,6.774654E-2,1.2093388E-1,2.4520801E-1,1.638639E-2,5.229002E-1,2.183901E-2,9.5769256E-1,-5.4119653E-3,-4.8888936E-3,-8.309111E-2,-6.0518213E-2,-3.7269644E-2,2.7383997E-3,5.2255906E-2,1.4039569E-1,9.6139E-2,1.9478793E-1,2.0817266E-1,1.6460162E-2,2.2060795E-2,3.175732E-2,4.8552316E-2,1.3927067E-2,-4.3272446E-3,-3.632207E-3,-3.2419262E-3,-2.1562667E-3,-2.3457482E-3,-1.0402941E-3,-3.8886795E-4,1.1867177E-3,1.4177439E-3,3.8801883E-3,4.4631003E-3,8.050176E-3,2.927735E-3,5.8380137E-3,7.247568E-3,1.25207575E-2,8.505351E-3,1.1135468E-2],"categories":[],"categories_nodes":[],"categories_segments":[],"categories_sizes":[],"default_left":[0,0,0,0,0,0,0,0,0,0,0,0,0,0,0,0,0,0,0,0,0,0,0,0,0,0,0,0,0,0,0,0,0,0,0,0,0,0,0,0,0,0,0,0,0,0,0,0,0,0,0,0,0,0,0,0,0,0,0],"id":5,"left_children":[1,3,5,7,9,11,13,15,17,19,21,23,-1,-1,-1,25,27,29,31,33,35,-1,37,-1,39,-1,-1,41,43,45,47,49,51,53,55,57,-1,-1,-1,-1,-1,-1,-1,-1,-1,-1,-1,-1,-1,-1,-1,-1,-1,-1,-1,-1,-1,-1,-1],"loss_changes":[1.9320963E2,4.307711E1,3.9409683E1,5.339245E0,6.6255684E0,3.8862534E0,6.875305E-1,3.755417E-1,8.784132E-1,1.0483961E0,1.1180897E0,7.8689194E-1,0E0,0E0,0E0,2.0746231E-2,5.2559614E-2,1.9322687E-1,1.6934842E-1,2.870841E-1,3.047638E-1,0E0,4.440956E-1,0E0,1.0667801E-2,0E0,0E0,4.86207E-3,1.0804653E-2,3.9517462E-2,5.0965916E-2,7.716459E-2,1.4079869E-2,9.159255E-2,7.736492E-2,9.703636E-3,0E0,0E0,0E0,0E0,0E0,0E0,0E0,0E0,0E0,0E0,0E0,0E0,0E0,0E0,0E0,0E0,0E0,0E0,0E0,0E0,0E0,0E0,0E0],"parents":[2147483647,0,0,1,1,2,2,3,3,4,4,5,5,6,6,7,7,8,8,9,9,10,10,11,11,15,15,16,16,17,17,18,18,19,19,20,20,22,22,24,24,27,27,28,28,29,29,30,30,31,31,32,32,33,33,34,34,35,35],"right_children":[2,4,6,8,10,12,14,16,18,20,22,24,-1,-1,-1,26,28,30,32,34,36,-1,38,-1,40,-1,-1,42,44,46,48,50,52,54,56,58,-1,-1,-1,-1,-1,-1,-1,-1,-1,-1,-1,-1,-1,-1,-1,-1,-1,-1,-1,-1,-1,-1,-1],"split_conditions":[2.4687016E0,9.762066E-1,6.076273E0,4.345656E-1,2.2165E-1,1.6258949E0,2.38E-1,2.2012141E-1,9.705E-2,1.473E-1,1.485654E0,2.306E-1,7.100627E-2,4.1563712E-2,1.5777259E-1,1.0856216E-1,3.2125E-2,6.227044E-1,1.6375E-1,2.9649502E-1,1.5334284E0,1.638639E-2,3.21575E-1,2.183901E-2,2.2155201E0,-5.4119653E-3,-4.8888936E-3,3.4102297E-1,5.43E-2,5.7825E-2,7.6125E-2,7.6587194E-1,7.806025E-1,8.265E-2,1.3192677E0,1.1433624E0,1.6460162E-2,2.2060795E-2,3.175732E-2,4.8552316E-2,1.3927067E-2,-4.3272446E-3,-3.632207E-3,-3.2419262E-3,-2.1562667E-3,-2.3457482E-3,-1.0402941E-3,-3.8886795E-4,1.1867177E-3,1.4177439E-3,3.8801883E-3,4.4631003E-3,8.050176E-3,2.927735E-3,5.8380137E-3,7.247568E-3,1.25207575E-2,8.505351E-3,1.1135468E-2],"split_indices":[1,1,1,1,2,6,2,1,2,2,1,2,0,0,0,1,2,1,2,6,1,0,2,0,7,0,0,1,2,2,2,1,1,2,1,1,0,0,0,0,0,0,0,0,0,0,0,0,0,0,0,0,0,0,0,0,0,0,0],"split_type":[0,0,0,0,0,0,0,0,0,0,0,0,0,0,0,0,0,0,0,0,0,0,0,0,0,0,0,0,0,0,0,0,0,0,0,0,0,0,0,0,0,0,0,0,0,0,0,0,0,0,0,0,0,0,0,0,0,0,0],"sum_hessian":[3.562E3,3.478E3,8.4E1,3.055E3,4.23E2,7.1E1,1.3E1,2.416E3,6.39E2,2.85E2,1.38E2,3.6E1,3.5E1,1E0,1.2E1,1.928E3,4.88E2,4.83E2,1.56E2,1.66E2,1.19E2,6E1,7.8E1,6E0,3E1,1.569E3,3.59E2,3.08E2,1.8E2,2.54E2,2.29E2,1.3E2,2.6E1,1.26E2,4E1,8.5E1,3.4E1,4.8E1,3E1,2.9E1,1E0,2.26E2,8.2E1,1.42E2,3.8E1,1.59E2,9.5E1,1.53E2,7.6E1,6.8E1,6.2E1,9E0,1.7E1,4.6E1,8E1,2.3E1,1.7E1,2.7E1,5.8E1],"tree_param":{"num_deleted":"0","num_feature":"9","num_nodes":"59","size_leaf_vector":"1"}},{"base_weights":[-8.186363E-3,-3.7864674E-2,1.2547281E0,-7.61889E-2,2.1714108E-1,1.0037158E0,2.7380133E0,-9.556036E-2,-4.9687503E-3,1.3334249E-1,3.6129972E-1,5.2743864E-1,1.1836779E0,4.052462E-2,1.4248581E-1,-1.00935936E-1,-7.2535224E-2,-2.6247945E-2,3.662302E-2,7.46406E-2,1.7135403E-1,3.0381635E-1,5.0986123E-1,2.7108142E-2,5.8238753E-3,5.103456E-2,7.083634E-2,-5.1475777E-3,-4.6563484E-3,-7.8704275E-2,-6.06417E-2,-3.6592245E-2,-8.226323E-5,1.987529E-2,7.7631526E-2,6.347828E-2,1.7237496E-1,1.3752759E-1,2.3009796E-1,2.3942596E-1,3.479393E-1,1.6571729E-2,2.7015254E-2,-4.166057E-3,-3.6035192E-3,-3.6034249E-3,-2.7899824E-3,-3.0582258E-3,-1.5363037E-3,-1.0435202E-3,6.113793E-4,-6.856518E-4,1.4226064E-3,2.8141562E-3,4.79434E-3,1.28176E-3,4.2152465E-3,9.345741E-3,3.5648537E-3,5.9361258E-3,8.123504E-3,1.16282655E-2,2.0514422E-3,1.224812E-2,5.587393E-3,1.5285233E-2,2.0115761E-2],"categories":[],"categories_nodes":[],"categories_segments":[],"categories_sizes":[],"default_left":[0,0,0,0,0,0,0,0,0,0,0,0,0,0,0,0,0,0,0,0,0,0,0,0,0,0,0,0,0,0,0,0,0,0,0,0,0,0,0,0,0,0,0,0,0,0,0,0,0,0,0,0,0,0,0,0,0,0,0,0,0,0,0,0,0,0,0],"id":6,"left_children":[1,3,5,7,9,11,13,15,17,19,21,23,25,-1,-1,27,29,31,33,35,37,39,41,-1,-1,-1,-1,-1,-1,43,45,47,49,51,53,55,57,59,61,63,65,-1,-1,-1,-1,-1,-1,-1,-1,-1,-1,-1,-1,-1,-1,-1,-1,-1,-1,-1,-1,-1,-1,-1,-1,-1,-1],"loss_changes":[1.3059442E2,3.3283485E1,2.7037651E1,4.083254E0,5.3275547E0,5.3755035E0,5.873108E-2,2.8069687E-1,5.620763E-1,6.1868143E-1,1.2370853E0,6.392193E-2,4.531479E-1,0E0,0E0,2.0067215E-2,2.7804136E-2,1.1367655E-1,1.4611888E-1,1.1233437E-1,3.0814934E-1,2.5762558E-1,5.9931755E-2,0E0,0E0,0E0,0E0,0E0,0E0,2.8464794E-3,4.6099424E-3,4.1508347E-2,3.0963056E-2,4.4754736E-2,1.8765897E-2,7.90177E-2,2.839774E-3,3.2775164E-2,1.8914461E-2,9.384155E-3,3.5471916E-2,0E0,0E0,0E0,0E0,0E0,0E0,0E0,0E0,0E0,0E0,0E0,0E0,0E0,0E0,0E0,0E0,0E0,0E0,0E0,0E0,0E0,0E0,0E0,0E0,0E0,0E0],"parents":[2147483647,0,0,1,1,2,2,3,3,4,4,5,5,6,6,7,7,8,8,9,9,10,10,11,11,12,12,15,15,16,16,17,17,18,18,19,19,20,20,21,21,22,22,29,29,30,30,31,31,32,32,33,33,34,34,35,35,36,36,37,37,38,38,39,39,40,40],"right_children":[2,4,6,8,10,12,14,16,18,20,22,24,26,-1,-1,28,30,32,34,36,38,40,42,-1,-1,-1,-1,-1,-1,44,46,48,50,52,54,56,58,60,62,64,66,-1,-1,-1,-1,-1,-1,-1,-1,-1,-1,-1,-1,-1,-1,-1,-1,-1,-1,-1,-1,-1,-1,-1,-1,-1,-1],"split_conditions":[2.2906268E0,9.210692E-1,6.076273E0,4.1964784E-1,4.5092002E-1,9.5896995E-1,7.2212255E-1,2.2012141E-1,6.925253E-1,2.2338043E-1,1.7896118E0,7.570975E-1,3.8087301E0,4.052462E-2,1.4248581E-1,1.0108094E-1,3.4102297E-1,1.48055E-1,2.5059503E-1,1.4153401E0,1.3012248E0,1.3192677E0,5.92635E-1,2.7108142E-2,5.8238753E-3,5.103456E-2,7.083634E-2,-5.1475777E-3,-4.6563484E-3,3.489923E-2,3.7097502E-2,3.8165003E-2,5.4602575E-1,9.228975E-2,3.3039752E-1,1.1629251E-1,1.628625E-1,1.1433624E0,5.712925E-1,3.04E1,6.49545E-1,1.6571729E-2,2.7015254E-2,-4.166057E-3,-3.6035192E-3,-3.6034249E-3,-2.7899824E-3,-3.0582258E-3,-1.5363037E-3,-1.0435202E-3,6.113793E-4,-6.856518E-4,1.4226064E-3,2.8141562E-3,4.79434E-3,1.28176E-3,4.2152465E-3,9.345741E-3,3.5648537E-3,5.9361258E-3,8.123504E-3,1.16282655E-2,2.0514422E-3,1.224812E-2,5.587393E-3,1.5285233E-2,2.0115761E-2],"split_indices":[1,1,1,1,6,6,6,1,1,6,1,8,1,0,0,1,1,6,6,1,1,1,6,0,0,0,0,0,0,6,6,6,1,6,6,6,7,1,7,0,6,0,0,0,0,0,0,0,0,0,0,0,0,0,0,0,0,0,0,0,0,0,0,0,0,0,0],"split_type":[0,0,0,0,0,0,0,0,0,0,0,0,0,0,0,0,0,0,0,0,0,0,0,0,0,0,0,0,0,0,0,0,0,0,0,0,0,0,0,0,0,0,0,0,0,0,0,0,0,0,0,0,0,0,0,0,0,0,0,0,0,0,0,0,0,0,0],"sum_hessian":[3.482E3,3.403E3,7.9E1,2.959E3,4.44E2,6.9E1,1E1,2.326E3,6.33E2,2.82E2,1.62E2,2E1,4.9E1,1E0,9E0,1.883E3,4.43E2,4.19E2,2.14E2,1.12E2,1.7E2,1.19E2,4.3E1,1.9E1,1E0,3.2E1,1.7E1,1.487E3,3.96E2,2.88E2,1.55E2,3E2,1.19E2,1.53E2,6.1E1,1.02E2,1E1,1.1E2,6E1,5.1E1,6.8E1,8E0,3.5E1,1.63E2,1.25E2,4.2E1,1.13E2,5.6E1,2.44E2,4.4E1,7.5E1,3.1E1,1.22E2,3E1,3.1E1,3.7E1,6.5E1,8E0,2E0,6.6E1,4.4E1,5.9E1,1E0,4.8E1,3E0,4.2E1,2.6E1],"tree_param":{"num_deleted":"0","num_feature":"9","num_nodes":"67","size_leaf_vector":"1"}},{"base_weights":[1.2478891E-3,-3.1013692E-2,1.3247172E0,-6.8165585E-2,2.5346422E-1,1.0081693E0,1.5001768E-1,-8.7995544E-2,1.3602182E-2,1.6222927E-1,3.9687958E-1,7.6557356E-1,1.2496855E0,-9.51363E-2,-5.962706E-2,-6.349818E-3,7.963165E-2,1.3979547E-1,1.4126338E-2,3.3718207E-1,5.4591763E-1,2.1924553E-2,4.3920495E-2,3.5259403E-2,6.5846436E-2,-4.859382E-3,-4.187941E-3,-6.694188E-2,-3.7731104E-2,-2.3389138E-2,1.6458267E-2,6.266617E-2,1.3726299E-1,6.670556E-2,1.6327955E-1,1.4214078E-2,2.0460142E-2,1.864542E-2,2.9686809E-2,-3.678308E-3,-2.9794902E-3,-2.5455405E-3,-1.5906431E-3,-1.8047612E-3,-5.1085436E-4,2.517701E-4,1.8490341E-3,1.9967053E-3,3.9810548E-3,5.800427E-3,9.193423E-3,7.0635243E-3,2.5155114E-3,6.874308E-3,9.788766E-3],"categories":[],"categories_nodes":[],"categories_segments":[],"categories_sizes":[],"default_left":[0,0,0,0,0,0,0,0,0,0,0,0,0,0,0,0,0,0,0,0,0,0,0,0,0,0,0,0,0,0,0,0,0,0,0,0,0,0,0,0,0,0,0,0,0,0,0,0,0,0,0,0,0,0,0],"id":7,"left_children":[1,3,5,7,9,11,-1,13,15,17,19,21,23,25,27,29,31,33,-1,35,37,-1,-1,-1,-1,-1,-1,39,41,43,45,47,49,51,53,-1,-1,-1,-1,-1,-1,-1,-1,-1,-1,-1,-1,-1,-1,-1,-1,-1,-1,-1,-1],"loss_changes":[1.5251283E2,3.6871E1,4.206076E1,5.003376E0,5.208666E0,3.3203964E0,0E0,4.9731255E-1,7.9490995E-1,6.297889E-1,1.2038898E0,1.0541878E0,3.5280228E-1,3.8118362E-2,7.7877045E-2,1.8071124E-1,1.2828231E-1,3.5127878E-1,0E0,3.1800365E-1,1.3433075E-1,0E0,0E0,0E0,0E0,0E0,0E0,1.3879418E-2,8.364484E-3,4.4150382E-2,4.6464313E-2,3.9216638E-2,9.37748E-3,5.7686046E-2,1.0635376E-1,0E0,0E0,0E0,0E0,0E0,0E0,0E0,0E0,0E0,0E0,0E0,0E0,0E0,0E0,0E0,0E0,0E0,0E0,0E0,0E0],"parents":[2147483647,0,0,1,1,2,2,3,3,4,4,5,5,7,7,8,8,9,9,10,10,11,11,12,12,13,13,14,14,15,15,16,16,17,17,19,19,20,20,27,27,28,28,29,29,30,30,31,31,32,32,33,33,34,34],"right_children":[2,4,6,8,10,12,-1,14,16,18,20,22,24,26,28,30,32,34,-1,36,38,-1,-1,-1,-1,-1,-1,40,42,44,46,48,50,52,54,-1,-1,-1,-1,-1,-1,-1,-1,-1,-1,-1,-1,-1,-1,-1,-1,-1,-1,-1,-1],"split_conditions":[2.4687016E0,1.0165408E0,6.076273E0,4.9615127E-1,2.145E-1,3.2801862E0,1.5001768E-1,2.5158268E-1,1.08E-1,1.6579603E0,3.21575E-1,3.057E-1,6.0937726E-1,9.1E-3,4.685E-2,7.0675E-2,1.67325E-1,9.705E-2,1.4126338E-2,1.6085476E0,1.4153401E0,2.1924553E-2,4.3920495E-2,3.5259403E-2,6.5846436E-2,-4.859382E-3,-4.187941E-3,3.4461978E-1,3.7784475E-1,6.227044E-1,7.6587194E-1,7.6587194E-1,2.38E-1,1.4900001E1,1.59675E-1,1.4214078E-2,2.0460142E-2,1.864542E-2,2.9686809E-2,-3.678308E-3,-2.9794902E-3,-2.5455405E-3,-1.5906431E-3,-1.8047612E-3,-5.1085436E-4,2.517701E-4,1.8490341E-3,1.9967053E-3,3.9810548E-3,5.800427E-3,9.193423E-3,7.0635243E-3,2.5155114E-3,6.874308E-3,9.788766E-3],"split_indices":[1,1,1,1,2,1,0,1,2,1,2,2,8,2,2,2,2,2,0,1,1,0,0,0,0,0,0,1,1,1,1,1,2,0,2,0,0,0,0,0,0,0,0,0,0,0,0,0,0,0,0,0,0,0,0],"split_type":[0,0,0,0,0,0,0,0,0,0,0,0,0,0,0,0,0,0,0,0,0,0,0,0,0,0,0,0,0,0,0,0,0,0,0,0,0,0,0,0,0,0,0,0,0,0,0,0,0,0,0,0,0,0,0],"sum_hessian":[3.57E3,3.486E3,8.4E1,3.084E3,4.02E2,7.2E1,1.2E1,2.482E3,6.02E2,2.47E2,1.55E2,3.8E1,3.4E1,1.981E3,5.01E2,4.63E2,1.39E2,2.1E2,3.7E1,1.13E2,4.2E1,1.1E1,2.7E1,5E0,2.9E1,1.672E3,3.09E2,3.74E2,1.27E2,2.65E2,1.98E2,1.09E2,3E1,5.2E1,1.58E2,6.8E1,4.5E1,1.1E1,3.1E1,1.92E2,1.82E2,3.7E1,9E1,1.34E2,1.31E2,1.28E2,7E1,4.8E1,6.1E1,2.3E1,7E0,8E0,4.4E1,9.1E1,6.7E1],"tree_param":{"num_deleted":"0","num_feature":"9","num_nodes":"55","size_leaf_vector":"1"}},{"base_weights":[1.7157636E-3,-2.7979651E-2,1.4751697E0,-6.245028E-2,2.7412164E-1,1.0649476E0,1.4093745E-1,-8.2488656E-2,2.417334E-2,1.7787972E-1,4.265521E-1,2.8851226E-2,1.1584738E0,-8.966349E-2,-5.1863898E-2,4.585804E-3,9.560142E-2,1.23131745E-1,2.2914636E-1,3.4980682E-1,5.4822576E-1,4.750437E-2,6.6277616E-2,-9.217696E-2,-7.714815E-2,-6.306041E-2,-3.7007123E-2,-1.4249885E-2,2.7794652E-2,7.257719E-2,1.4101823E-1,8.533805E-2,1.5435447E-1,9.396308E-3,1.3424143E-2,1.3721667E-2,2.0209862E-2,2.124519E-2,3.193776E-2,-4.666619E-3,-4.385118E-3,-4.0819687E-3,-3.601643E-3,-3.452627E-3,-2.8417592E-3,-2.22275E-3,-1.1905648E-3,-1.1673373E-3,2.0015301E-4,6.108896E-4,2.2907467E-3,2.4953883E-3,4.679857E-3,4.0091854E-3,7.544709E-3,3.1433813E-3,6.2144767E-3,6.868154E-3,1.1674426E-2],"categories":[],"categories_nodes":[],"categories_segments":[],"categories_sizes":[],"default_left":[0,0,0,0,0,0,0,0,0,0,0,0,0,0,0,0,0,0,0,0,0,0,0,0,0,0,0,0,0,0,0,0,0,0,0,0,0,0,0,0,0,0,0,0,0,0,0,0,0,0,0,0,0,0,0,0,0,0,0],"id":8,"left_children":[1,3,5,7,9,11,-1,13,15,17,19,-1,21,23,25,27,29,31,33,35,37,-1,-1,39,41,43,45,47,49,51,53,55,57,-1,-1,-1,-1,-1,-1,-1,-1,-1,-1,-1,-1,-1,-1,-1,-1,-1,-1,-1,-1,-1,-1,-1,-1,-1,-1],"loss_changes":[1.5725238E2,3.6704308E1,3.613095E1,5.492321E0,5.220066E0,1.8870163E0,0E0,5.598278E-1,8.3202606E-1,5.9768915E-1,1.1061935E0,0E0,3.421898E-1,5.8321E-2,7.917476E-2,2.0498443E-1,1.2361324E-1,1.1663008E-1,1.3439083E-1,2.4983883E-1,3.0913162E-1,0E0,0E0,7.4386597E-4,2.2523403E-3,6.445527E-3,1.9875318E-2,4.309897E-2,5.838713E-2,3.6785156E-2,1.3134301E-2,3.769955E-2,4.7258496E-2,0E0,0E0,0E0,0E0,0E0,0E0,0E0,0E0,0E0,0E0,0E0,0E0,0E0,0E0,0E0,0E0,0E0,0E0,0E0,0E0,0E0,0E0,0E0,0E0,0E0,0E0],"parents":[2147483647,0,0,1,1,2,2,3,3,4,4,5,5,7,7,8,8,9,9,10,10,12,12,13,13,14,14,15,15,16,16,17,17,18,18,19,19,20,20,23,23,24,24,25,25,26,26,27,27,28,28,29,29,30,30,31,31,32,32],"right_children":[2,4,6,8,10,12,-1,14,16,18,20,-1,22,24,26,28,30,32,34,36,38,-1,-1,40,42,44,46,48,50,52,54,56,58,-1,-1,-1,-1,-1,-1,-1,-1,-1,-1,-1,-1,-1,-1,-1,-1,-1,-1,-1,-1,-1,-1,-1,-1,-1,-1],"split_conditions":[2.6778321E0,1.0742527E0,6.076273E0,5.290977E-1,5.712925E-1,1.02234E0,1.4093745E-1,2.8219852E-1,1.1655E-1,1.55775E-1,3.21575E-1,2.8851226E-2,3.8087301E0,1.604993E-1,4.04E-2,7.505E-2,1.67325E-1,2.39945E-1,1.3682551E0,1.5334284E0,1.7896118E0,4.750437E-2,6.6277616E-2,6.953927E-2,1.675E-2,3.8165003E-2,5.97E-2,7.3420894E-1,7.6587194E-1,8.6238134E-1,7.806025E-1,1.0525E-1,1.7896118E0,9.396308E-3,1.3424143E-2,1.3721667E-2,2.0209862E-2,2.124519E-2,3.193776E-2,-4.666619E-3,-4.385118E-3,-4.0819687E-3,-3.601643E-3,-3.452627E-3,-2.8417592E-3,-2.22275E-3,-1.1905648E-3,-1.1673373E-3,2.0015301E-4,6.108896E-4,2.2907467E-3,2.4953883E-3,4.679857E-3,4.0091854E-3,7.544709E-3,3.1433813E-3,6.2144767E-3,6.868154E-3,1.1674426E-2],"split_indices":[1,1,1,1,6,6,0,1,2,2,2,0,1,1,2,2,2,6,1,1,1,0,0,1,2,6,2,1,1,1,1,2,1,0,0,0,0,0,0,0,0,0,0,0,0,0,0,0,0,0,0,0,0,0,0,0,0,0,0],"split_type":[0,0,0,0,0,0,0,0,0,0,0,0,0,0,0,0,0,0,0,0,0,0,0,0,0,0,0,0,0,0,0,0,0,0,0,0,0,0,0,0,0,0,0,0,0,0,0,0,0,0,0,0,0,0,0,0,0,0,0],"sum_hessian":[3.592E3,3.522E3,7E1,3.162E3,3.6E2,5.5E1,1.5E1,2.568E3,5.94E2,2.22E2,1.38E2,1E1,4.5E1,2.079E3,4.89E2,4.67E2,1.27E2,1.09E2,1.13E2,8.7E1,5.1E1,2.3E1,2.2E1,1.726E3,3.53E2,2.77E2,2.12E2,2.58E2,2.09E2,8.6E1,4.1E1,5.1E1,5.8E1,5.8E1,5.5E1,3.9E1,4.8E1,2.4E1,2.7E1,1.356E3,3.7E2,1.8E2,1.73E2,1.36E2,1.41E2,1.34E2,7.8E1,1.72E2,8.6E1,1.13E2,9.6E1,4.3E1,4.3E1,7E0,3.4E1,3.4E1,1.7E1,5E1,8E0],"tree_param":{"num_deleted":"0","num_feature":"9","num_nodes":"59","size_leaf_vector":"1"}},{"base_weights":[-4.9991306E-4,-2.8134339E-2,1.3992511E0,-6.321211E-2,2.2676434E-1,1.0489259E0,2.7006052E0,-7.937741E-2,1.1251624E-2,1.428E-1,3.8675937E-1,8.0271226E-1,6.7188226E-2,3.864043E-2,1.3947253E-1,-8.526039E-2,-5.059731E-2,-1.4089696E-2,4.836086E-2,1.06641725E-1,2.1061589E-1,2.945324E-1,5.0893205E-1,1.836441E-2,4.4293497E-2,-8.758618E-2,-7.325063E-2,-5.7216562E-2,-2.9501196E-2,-2.7024614E-2,-3.8901428E-3,3.579897E-2,1.0164427E-1,6.0115032E-2,1.4264703E-1,1.8204969E-1,1.5840132E-2,2.545601E-1,1.7797496E-2,1.961026E-2,5.96088E-1,-4.4369875E-3,-4.1742083E-3,-3.843683E-3,-3.3880516E-3,-3.1936828E-3,-2.5780941E-3,-1.6373926E-3,-3.0294026E-4,-1.8175108E-3,-8.597073E-4,-1.1060381E-3,1.17351294E-4,1.0765898E-3,2.7933193E-3,3.8848834E-3,6.094549E-3,4.085726E-3,1.3609136E-3,6.259616E-3,8.039023E-3,5.0625335E-3,9.907122E-3,9.261892E-3,1.3479902E-2,1.7886406E-2,3.1293813E-2],"categories":[],"categories_nodes":[],"categories_segments":[],"categories_sizes":[],"default_left":[0,0,0,0,0,0,0,0,0,0,0,0,0,0,0,0,0,0,0,0,0,0,0,0,0,0,0,0,0,0,0,0,0,0,0,0,0,0,0,0,0,0,0,0,0,0,0,0,0,0,0,0,0,0,0,0,0,0,0,0,0,0,0,0,0,0,0],"id":9,"left_children":[1,3,5,7,9,11,13,15,17,19,21,23,-1,-1,-1,25,27,29,31,33,35,37,39,-1,-1,41,43,45,47,49,51,53,55,57,59,61,-1,63,-1,-1,65,-1,-1,-1,-1,-1,-1,-1,-1,-1,-1,-1,-1,-1,-1,-1,-1,-1,-1,-1,-1,-1,-1,-1,-1,-1,-1],"loss_changes":[1.3786089E2,3.1264105E1,2.8624176E1,3.6999521E0,5.6272964E0,2.9865685E0,2.4214172E-1,4.231987E-1,5.1695937E-1,6.6167736E-1,1.4839077E0,8.695221E-1,0E0,0E0,0E0,5.2103043E-2,5.849719E-2,4.303611E-2,1.456241E-1,2.9966307E-1,2.3352766E-1,1.180644E-1,3.8679028E-1,0E0,0E0,8.72612E-4,1.6725063E-3,9.016037E-3,7.793069E-3,1.25762E-2,2.0974088E-2,5.0904647E-2,1.089263E-2,5.604121E-2,1.2472391E-2,8.1359625E-2,0E0,7.3952675E-3,0E0,0E0,1.0416985E-2,0E0,0E0,0E0,0E0,0E0,0E0,0E0,0E0,0E0,0E0,0E0,0E0,0E0,0E0,0E0,0E0,0E0,0E0,0E0,0E0,0E0,0E0,0E0,0E0,0E0,0E0],"parents":[2147483647,0,0,1,1,2,2,3,3,4,4,5,5,6,6,7,7,8,8,9,9,10,10,11,11,15,15,16,16,17,17,18,18,19,19,20,20,21,21,22,22,25,25,26,26,27,27,28,28,29,29,30,30,31,31,32,32,33,33,34,34,35,35,37,37,40,40],"right_children":[2,4,6,8,10,12,14,16,18,20,22,24,-1,-1,-1,26,28,30,32,34,36,38,40,-1,-1,42,44,46,48,50,52,54,56,58,60,62,-1,64,-1,-1,66,-1,-1,-1,-1,-1,-1,-1,-1,-1,-1,-1,-1,-1,-1,-1,-1,-1,-1,-1,-1,-1,-1,-1,-1,-1,-1],"split_conditions":[2.6778321E0,9.762066E-1,3.402425E0,5.036737E-1,2.2165E-1,3.8087301E0,4.590212E0,2.8219852E-1,8.5875E-2,1.3410461E0,1.6579603E0,7.2212255E-1,6.7188226E-2,3.864043E-2,1.3947253E-1,1.604993E-1,5.0025E-2,6.227044E-1,1.473E-1,1.195E-1,1.9491144E0,2.90725E-1,3.057E-1,1.836441E-2,4.4293497E-2,6.447579E-2,1.8475E-2,2.68E-2,8.43E-2,5.2125E-2,4.11E-2,7.6587194E-1,1.74675E-1,2.2300001E1,1.67325E-1,2.141771E-1,1.5840132E-2,1.240819E0,1.7797496E-2,1.961026E-2,1.7896118E0,-4.4369875E-3,-4.1742083E-3,-3.843683E-3,-3.3880516E-3,-3.1936828E-3,-2.5780941E-3,-1.6373926E-3,-3.0294026E-4,-1.8175108E-3,-8.597073E-4,-1.1060381E-3,1.17351294E-4,1.0765898E-3,2.7933193E-3,3.8848834E-3,6.094549E-3,4.085726E-3,1.3609136E-3,6.259616E-3,8.039023E-3,5.0625335E-3,9.907122E-3,9.261892E-3,1.3479902E-2,1.7886406E-2,3.1293813E-2],"split_indices":[1,1,6,1,2,1,1,1,2,1,1,6,0,0,0,1,2,1,2,2,1,2,2,0,0,1,2,2,2,2,2,1,2,0,2,6,0,1,0,0,1,0,0,0,0,0,0,0,0,0,0,0,0,0,0,0,0,0,0,0,0,0,0,0,0,0,0],"split_type":[0,0,0,0,0,0,0,0,0,0,0,0,0,0,0,0,0,0,0,0,0,0,0,0,0,0,0,0,0,0,0,0,0,0,0,0,0,0,0,0,0,0,0,0,0,0,0,0,0,0,0,0,0,0,0,0,0,0,0,0,0,0,0,0,0,0,0],"sum_hessian":[3.562E3,3.494E3,6.8E1,3.072E3,4.22E2,5.5E1,1.3E1,2.524E3,5.48E2,2.78E2,1.44E2,3.2E1,2.3E1,1E0,1.2E1,2.094E3,4.3E2,3.26E2,2.22E2,1.83E2,9.5E1,8.4E1,6E1,6E0,2.6E1,1.749E3,3.45E2,3.26E2,1.04E2,1.43E2,1.83E2,1.81E2,4.1E1,8.1E1,1.02E2,7.7E1,1.8E1,5.4E1,3E1,2.8E1,3.2E1,1.349E3,4E2,2E2,1.45E2,1.45E2,1.81E2,9.1E1,1.3E1,7.2E1,7.1E1,4.6E1,1.37E2,1.07E2,7.4E1,2.1E1,2E1,4.8E1,3.3E1,5.6E1,4.6E1,1.4E1,6.3E1,1.2E1,4.2E1,5E0,2.7E1],"tree_param":{"num_deleted":"0","num_feature":"9","num_nodes":"67","size_leaf_vector":"1"}},{"base_weights":[6.3198706E-4,-2.4758196E-2,1.2824645E0,-5.6645572E-2,2.4562423E-1,9.542596E-1,2.5271227E0,-7.458944E-2,2.2361238E-2,1.5537658E-1,3.7295446E-1,4.664885E-1,5.369827E-2,6.5625764E-2,1.440857E-1,-8.070972E-2,-4.5714866E-2,1.0604782E-3,7.624833E-2,1.3168895E-1,2.471342E-1,3.1249377E-1,5.3745514E-1,1.4001575E-2,2.740101E-2,-8.323978E-2,-6.938287E-2,-5.2575737E-2,-2.6669592E-2,-2.0086648E-2,1.3208227E-2,5.9171986E-2,1.1950899E-1,8.091993E-2,1.6414607E-1,1.0245528E-2,1.437785E-2,2.7166885E-1,2.0955436E-2,2.0859657E-2,3.08444E-2,-4.2182314E-3,-3.987254E-3,-3.5599426E-3,-2.954792E-3,-2.9766138E-3,-2.2498954E-3,-1.48695E-3,-1.3959524E-4,-1.3858106E-3,6.877566E-4,1.3348264E-4,1.8970255E-3,2.062691E-3,4.1077337E-3,5.28008E-3,8.618447E-3,2.5967238E-3,6.0554002E-3,7.125122E-3,9.437213E-3,1.0986666E-2,1.5150121E-2],"categories":[],"categories_nodes":[],"categories_segments":[],"categories_sizes":[],"default_left":[0,0,0,0,0,0,0,0,0,0,0,0,0,0,0,0,0,0,0,0,0,0,0,0,0,0,0,0,0,0,0,0,0,0,0,0,0,0,0,0,0,0,0,0,0,0,0,0,0,0,0,0,0,0,0,0,0,0,0,0,0,0,0],"id":10,"left_children":[1,3,5,7,9,11,13,15,17,19,21,23,-1,-1,-1,25,27,29,31,33,35,37,39,-1,-1,41,43,45,47,49,51,53,55,57,59,-1,-1,61,-1,-1,-1,-1,-1,-1,-1,-1,-1,-1,-1,-1,-1,-1,-1,-1,-1,-1,-1,-1,-1,-1,-1,-1,-1],"loss_changes":[1.17294846E2,3.0483307E1,2.6183662E1,4.484396E0,4.2282887E0,2.827179E0,2.2473602E0,4.5171928E-1,6.7255104E-1,4.456296E-1,1.3637047E0,4.4165134E-2,0E0,0E0,0E0,5.512142E-2,5.779004E-2,1.0841599E-1,1.15558386E-1,2.7838087E-1,1.6175747E-2,3.8668442E-1,1.2474918E-1,0E0,0E0,8.106232E-5,3.1529665E-3,1.48227215E-2,8.858383E-3,4.0143732E-2,6.975104E-2,4.643953E-2,1.5614212E-2,7.6416105E-2,3.0069351E-2,0E0,0E0,7.336998E-2,0E0,0E0,0E0,0E0,0E0,0E0,0E0,0E0,0E0,0E0,0E0,0E0,0E0,0E0,0E0,0E0,0E0,0E0,0E0,0E0,0E0,0E0,0E0,0E0,0E0],"parents":[2147483647,0,0,1,1,2,2,3,3,4,4,5,5,6,6,7,7,8,8,9,9,10,10,11,11,15,15,16,16,17,17,18,18,19,19,20,20,21,21,22,22,25,25,26,26,27,27,28,28,29,29,30,30,31,31,32,32,33,33,34,34,37,37],"right_children":[2,4,6,8,10,12,14,16,18,20,22,24,-1,-1,-1,26,28,30,32,34,36,38,40,-1,-1,42,44,46,48,50,52,54,56,58,60,-1,-1,62,-1,-1,-1,-1,-1,-1,-1,-1,-1,-1,-1,-1,-1,-1,-1,-1,-1,-1,-1,-1,-1,-1,-1,-1,-1],"split_conditions":[2.6778321E0,1.0742527E0,6.076273E0,5.290977E-1,2.2165E-1,1.02234E0,3.402425E0,2.3825E-2,1.0525E-1,1.6579603E0,1.9851301E0,1.67325E-1,5.369827E-2,6.5625764E-2,1.440857E-1,1.6397204E-1,5.33E-2,5.5575E-2,1.6375E-1,2.6549E-1,1.9491144E0,3.21575E-1,3.057E-1,1.4001575E-2,2.740101E-2,5.8657907E-2,3.4461978E-1,3.5490695E-1,8.43E-2,1.351075E-1,8.0584306E-1,8.7373227E-1,2.594E-1,1.0525E-1,4.11165E-1,1.0245528E-2,1.437785E-2,1.3682551E0,2.0955436E-2,2.0859657E-2,3.08444E-2,-4.2182314E-3,-3.987254E-3,-3.5599426E-3,-2.954792E-3,-2.9766138E-3,-2.2498954E-3,-1.48695E-3,-1.3959524E-4,-1.3858106E-3,6.877566E-4,1.3348264E-4,1.8970255E-3,2.062691E-3,4.1077337E-3,5.28008E-3,8.618447E-3,2.5967238E-3,6.0554002E-3,7.125122E-3,9.437213E-3,1.0986666E-2,1.5150121E-2],"split_indices":[1,1,1,1,2,6,6,2,2,1,1,2,0,0,0,1,2,2,2,6,1,2,2,0,0,1,1,1,2,6,1,1,2,2,6,0,0,1,0,0,0,0,0,0,0,0,0,0,0,0,0,0,0,0,0,0,0,0,0,0,0,0,0],"split_type":[0,0,0,0,0,0,0,0,0,0,0,0,0,0,0,0,0,0,0,0,0,0,0,0,0,0,0,0,0,0,0,0,0,0,0,0,0,0,0,0,0,0,0,0,0,0,0,0,0,0,0,0,0,0,0,0,0,0,0,0,0,0,0],"sum_hessian":[3.602E3,3.533E3,6.9E1,3.161E3,3.72E2,5.6E1,1.3E1,2.576E3,5.85E2,2.19E2,1.53E2,1.2E1,4.4E1,4E0,9E0,2.124E3,4.52E2,4.2E2,1.65E2,1.76E2,4.3E1,1.14E2,3.9E1,5E0,7E0,1.731E3,3.93E2,3.31E2,1.21E2,1.53E2,2.67E2,1.2E2,4.5E1,7E1,1.06E2,2.4E1,1.9E1,8.5E1,2.9E1,1.8E1,2.1E1,1.292E3,4.39E2,3.29E2,6.4E1,1.69E2,1.62E2,1.07E2,1.4E1,1.25E2,2.8E1,1.88E2,7.9E1,6.9E1,5.1E1,3.8E1,7E0,4.2E1,2.8E1,6E1,4.6E1,3.5E1,5E1],"tree_param":{"num_deleted":"0","num_feature":"9","num_nodes":"63","size_leaf_vector":"1"}},{"base_weights":[8.1767613E-4,-2.0629816E-2,1.5458786E0,-5.3527027E-2,2.6009542E-1,1.1015553E0,1.2545979E-1,-7.031529E-2,2.5976824E-2,1.7486218E-1,4.375122E-1,4.2956498E-2,6.169028E-2,-7.6634414E-2,-4.028071E-2,6.249566E-3,8.727289E-2,1.4498614E-1,3.0192688E-1,3.3347613E-1,6.081189E-1,-7.905776E-2,-6.5191105E-2,-4.7924187E-2,-2.2194613E-2,-1.033739E-2,2.7796844E-2,6.760084E-2,1.3497189E-1,9.5716424E-2,1.8890662E-1,5.8816774E-3,1.536912E-2,2.9152972E-1,2.0785425E-2,2.635006E-2,3.8362738E-2,-4.0004854E-3,-3.753495E-3,-3.370914E-3,-2.800173E-3,-2.7856908E-3,-2.0991478E-3,-1.2713171E-3,-1.8525288E-4,-7.0610864E-4,2.0293018E-3,7.3639833E-4,2.20962E-3,2.5049786E-3,4.55684E-3,3.2964738E-3,7.048937E-3,2.738293E-3,5.7839956E-3,7.570829E-3,1.0449445E-2,1.1497735E-2,1.5763506E-2],"categories":[],"categories_nodes":[],"categories_segments":[],"categories_sizes":[],"default_left":[0,0,0,0,0,0,0,0,0,0,0,0,0,0,0,0,0,0,0,0,0,0,0,0,0,0,0,0,0,0,0,0,0,0,0,0,0,0,0,0,0,0,0,0,0,0,0,0,0,0,0,0,0,0,0,0,0,0,0],"id":11,"left_children":[1,3,5,7,9,11,-1,13,15,17,19,-1,-1,21,23,25,27,29,31,33,35,37,39,41,43,45,47,49,51,53,55,-1,-1,57,-1,-1,-1,-1,-1,-1,-1,-1,-1,-1,-1,-1,-1,-1,-1,-1,-1,-1,-1,-1,-1,-1,-1,-1,-1],"loss_changes":[1.2101756E2,3.3278667E1,1.8637192E1,4.3063354E0,5.6395397E0,9.418869E-2,0E0,5.023308E-1,6.80236E-1,9.318466E-1,1.962616E0,0E0,0E0,5.582714E-2,6.3218236E-2,1.5289876E-1,1.1942804E-1,4.3634796E-1,1.2101173E-2,1.4785767E-1,1.76548E-1,8.649826E-4,4.20475E-3,1.2748301E-2,8.271232E-3,4.7214814E-2,3.9203644E-2,3.621307E-2,6.879747E-3,7.6233804E-2,5.117297E-2,0E0,0E0,7.902622E-3,0E0,0E0,0E0,0E0,0E0,0E0,0E0,0E0,0E0,0E0,0E0,0E0,0E0,0E0,0E0,0E0,0E0,0E0,0E0,0E0,0E0,0E0,0E0,0E0,0E0],"parents":[2147483647,0,0,1,1,2,2,3,3,4,4,5,5,7,7,8,8,9,9,10,10,13,13,14,14,15,15,16,16,17,17,18,18,19,19,20,20,21,21,22,22,23,23,24,24,25,25,26,26,27,27,28,28,29,29,30,30,33,33],"right_children":[2,4,6,8,10,12,-1,14,16,18,20,-1,-1,22,24,26,28,30,32,34,36,38,40,42,44,46,48,50,52,54,56,-1,-1,58,-1,-1,-1,-1,-1,-1,-1,-1,-1,-1,-1,-1,-1,-1,-1,-1,-1,-1,-1,-1,-1,-1,-1,-1,-1],"split_conditions":[1.6258949E0,1.102468E0,6.076273E0,5.50055E-1,2.594E-1,3.8087301E0,1.2545979E-1,3.0894995E-1,1.1655E-1,1.7896118E0,1.9851301E0,4.2956498E-2,6.169028E-2,1.0825E-2,5.33E-2,7.7425E-2,1.74675E-1,1.55775E-1,9.09E-2,3.63175E-1,2.8739576E0,7.400405E-2,2.71E-2,2.89E-2,8.43E-2,1.954375E-1,7.95208E-1,9.210692E-1,7.806025E-1,9.4575E-2,1.3012248E0,5.8816774E-3,1.536912E-2,1.3861746E0,2.0785425E-2,2.635006E-2,3.8362738E-2,-4.0004854E-3,-3.753495E-3,-3.370914E-3,-2.800173E-3,-2.7856908E-3,-2.0991478E-3,-1.2713171E-3,-1.8525288E-4,-7.0610864E-4,2.0293018E-3,7.3639833E-4,2.20962E-3,2.5049786E-3,4.55684E-3,3.2964738E-3,7.048937E-3,2.738293E-3,5.7839956E-3,7.570829E-3,1.0449445E-2,1.1497735E-2,1.5763506E-2],"split_indices":[6,1,1,1,2,1,0,1,2,1,1,0,0,2,2,2,2,2,2,2,1,1,2,2,2,6,1,1,1,2,1,0,0,1,0,0,0,0,0,0,0,0,0,0,0,0,0,0,0,0,0,0,0,0,0,0,0,0,0],"split_type":[0,0,0,0,0,0,0,0,0,0,0,0,0,0,0,0,0,0,0,0,0,0,0,0,0,0,0,0,0,0,0,0,0,0,0,0,0,0,0,0,0,0,0,0,0,0,0,0,0,0,0,0,0,0,0,0,0,0,0],"sum_hessian":[3.65E3,3.601E3,4.9E1,3.224E3,3.77E2,3.5E1,1.4E1,2.662E3,5.62E2,2.56E2,1.21E2,1.5E1,2E1,2.198E3,4.64E2,4.26E2,1.36E2,2.09E2,4.7E1,7.7E1,4.4E1,1.809E3,3.89E2,3.25E2,1.39E2,2.41E2,1.85E2,9.8E1,3.8E1,1E2,1.09E2,2E0,4.5E1,5.4E1,2.3E1,3.2E1,1.2E1,1.445E3,3.64E2,3.08E2,8.1E1,1.37E2,1.88E2,1.18E2,2.1E1,2.25E2,1.6E1,1.04E2,8.1E1,5.8E1,4E1,4E0,3.4E1,3.4E1,6.6E1,4.1E1,6.8E1,1.8E1,3.6E1],"tree_param":{"num_deleted":"0","num_feature":"9","num_nodes":"59","size_leaf_vector":"1"}},{"base_weights":[8.44844E-4,-2.3288278E-2,1.178728E0,-5.2572902E-2,2.1171492E-1,8.904312E-1,2.2341135E0,-6.8719715E-2,8.7961275E-3,1.4531082E-1,3.573784E-1,6.2228316E-1,5.2826237E-2,7.3842816E-2,1.3560532E-1,-7.38468E-2,-4.8577853E-2,-8.439786E-3,4.6374533E-2,1.1607927E-1,2.0859848E-1,2.0161994E-1,3.838956E-1,6.5840966E-1,1.340082E-2,-3.763003E-3,-6.519427E-2,-4.9334828E-2,4.8150173E-3,-1.925934E-2,6.1599216E-3,3.872282E-2,1.2045091E-1,8.863017E-2,1.4119977E-1,2.2192147E-1,1.422523E-1,2.0859078E-1,1.7293461E-3,4.075621E-1,2.5656852E-1,3.486934E-2,1.5433292E-2,-3.3314307E-3,-2.3719945E-3,-2.6275455E-3,-1.6433869E-3,-1.3875164E-3,-4.4470193E-4,1.9186046E-3,1.6737685E-6,3.0478693E-3,1.4487928E-3,9.911052E-3,3.925861E-3,5.3075417E-3,3.4611877E-3,8.586889E-3,6.176177E-3,5.7222424E-3,1.1338737E-2,2.736479E-3,7.854897E-3,1.0746262E-2,2.3642592E-3,1.6946932E-2,2.390028E-2,2.1111034E-3,1.3306551E-2],"categories":[],"categories_nodes":[],"categories_segments":[],"categories_sizes":[],"default_left":[0,0,0,0,0,0,0,0,0,0,0,0,0,0,0,0,0,0,0,0,0,0,0,0,0,0,0,0,0,0,0,0,0,0,0,0,0,0,0,0,0,0,0,0,0,0,0,0,0,0,0,0,0,0,0,0,0,0,0,0,0,0,0,0,0,0,0,0,0],"id":12,"left_children":[1,3,5,7,9,11,13,15,17,19,21,23,-1,-1,-1,25,27,29,31,33,35,37,39,41,-1,-1,43,45,-1,47,49,51,53,55,57,59,61,63,-1,65,67,-1,-1,-1,-1,-1,-1,-1,-1,-1,-1,-1,-1,-1,-1,-1,-1,-1,-1,-1,-1,-1,-1,-1,-1,-1,-1,-1,-1],"loss_changes":[1.0335596E2,2.4531628E1,2.0221954E1,3.1408129E0,3.7687664E0,1.9702606E0,1.4240646E0,2.555132E-1,4.2851985E-1,4.8083496E-1,4.3062305E-1,1.4349651E-1,0E0,0E0,0E0,1.9526482E-2,6.0901523E-2,7.183352E-2,1.1323252E-1,1.1780763E-1,4.3565273E-2,1.607275E-2,2.0882511E-1,8.464527E-2,0E0,0E0,4.173279E-3,2.5282145E-2,0E0,2.2724234E-2,3.828386E-2,3.9410412E-2,4.639882E-2,2.4273098E-2,3.1146646E-2,1.0037899E-2,1.3490677E-2,9.251118E-3,0E0,2.5371552E-1,2.7707338E-2,0E0,0E0,0E0,0E0,0E0,0E0,0E0,0E0,0E0,0E0,0E0,0E0,0E0,0E0,0E0,0E0,0E0,0E0,0E0,0E0,0E0,0E0,0E0,0E0,0E0,0E0,0E0,0E0],"parents":[2147483647,0,0,1,1,2,2,3,3,4,4,5,5,6,6,7,7,8,8,9,9,10,10,11,11,15,15,16,16,17,17,18,18,19,19,20,20,21,21,22,22,23,23,26,26,27,27,29,29,30,30,31,31,32,32,33,33,34,34,35,35,36,36,37,37,39,39,40,40],"right_children":[2,4,6,8,10,12,14,16,18,20,22,24,-1,-1,-1,26,28,30,32,34,36,38,40,42,-1,-1,44,46,-1,48,50,52,54,56,58,60,62,64,-1,66,68,-1,-1,-1,-1,-1,-1,-1,-1,-1,-1,-1,-1,-1,-1,-1,-1,-1,-1,-1,-1,-1,-1,-1,-1,-1,-1,-1,-1],"split_conditions":[1.1879901E0,1.23975E-1,3.402425E0,4.225E-2,5.92635E-1,1.6258949E0,5.55475E-1,1.6475E-2,8.7925E-2,1.913E-1,2.2165E-1,2.2155201E0,5.2826237E-2,7.3842816E-2,1.3560532E-1,7.825E-3,3.1172502E-1,1.238975E-1,3.4317607E-1,3.3039752E-1,6.49545E-1,1.8772051E0,9.603551E-1,1E0,1.340082E-2,-3.763003E-3,5.2540004E-2,8.255623E-2,4.8150173E-3,5.665E-2,7.693E-2,1.07607506E-1,1.0525E-1,1.2246469E-16,2.654275E-1,-9.659258E-1,4.5092002E-1,9.659258E-1,1.7293461E-3,7.5579745E-1,-5E-1,3.486934E-2,1.5433292E-2,-3.3314307E-3,-2.3719945E-3,-2.6275455E-3,-1.6433869E-3,-1.3875164E-3,-4.4470193E-4,1.9186046E-3,1.6737685E-6,3.0478693E-3,1.4487928E-3,9.911052E-3,3.925861E-3,5.3075417E-3,3.4611877E-3,8.586889E-3,6.176177E-3,5.7222424E-3,1.1338737E-2,2.736479E-3,7.854897E-3,1.0746262E-2,2.3642592E-3,1.6946932E-2,2.390028E-2,2.1111034E-3,1.3306551E-2],"split_indices":[6,2,6,2,6,6,2,2,2,2,2,7,0,0,0,2,6,6,6,6,8,8,8,4,0,0,6,6,0,2,8,8,2,4,8,5,6,5,0,6,5,0,0,0,0,0,0,0,0,0,0,0,0,0,0,0,0,0,0,0,0,0,0,0,0,0,0,0,0],"split_type":[0,0,0,0,0,0,0,0,0,0,0,0,0,0,0,0,0,0,0,0,0,0,0,0,0,0,0,0,0,0,0,0,0,0,0,0,0,0,0,0,0,0,0,0,0,0,0,0,0,0,0,0,0,0,0,0,0,0,0,0,0,0,0,0,0,0,0,0,0],"sum_hessian":[3.634E3,3.562E3,7.2E1,3.168E3,3.94E2,5.8E1,1.4E1,2.508E3,6.6E2,2.72E2,1.22E2,2.4E1,3.4E1,7E0,7E0,1.997E3,5.11E2,4.53E2,2.07E2,1.88E2,8.4E1,1.9E1,1.03E2,2.1E1,3E0,1.71E3,2.87E2,5.09E2,2E0,2.6E2,1.93E2,1.89E2,1.8E1,9.2E1,9.6E1,6.8E1,1.6E1,1.8E1,1E0,8.5E1,1.8E1,1.8E1,3E0,2.63E2,2.4E1,4.24E2,8.5E1,1.42E2,1.18E2,3E1,1.63E2,5.6E1,1.33E2,5E0,1.3E1,4.6E1,4.6E1,3.2E1,6.4E1,4E0,6.4E1,3E0,1.3E1,1.7E1,1E0,4.6E1,3.9E1,1E0,1.7E1],"tree_param":{"num_deleted":"0","num_feature":"9","num_nodes":"69","size_leaf_vector":"1"}},{"base_weights":[1.6802491E-3,-1.553572E-2,1.6017894E0,-4.558477E-2,2.8791288E-1,6.0150158E-2,1.279106E-1,-6.1881356E-2,4.108274E-2,2.0760678E-1,5.412187E-1,-6.9017716E-2,-3.3136863E-2,2.0274444E-2,1.1477573E-1,1.6850036E-1,3.106835E-1,1.9202577E-2,6.8000734E-1,-7.123997E-2,-5.8053833E-2,-4.1456237E-2,-1.8083494E-2,2.3499196E-3,4.0760778E-2,9.488818E-2,1.6175446E-1,1.2283709E-1,2.2999561E-1,1.2746311E-2,3.4959877E-1,5.5986917E-1,3.9773997E-2,-3.6214527E-3,-3.4021733E-3,-3.0133042E-3,-2.5139498E-3,-2.207862E-3,-1.3216619E-3,-1.2856981E-3,-3.9065394E-4,-2.3414819E-4,1.6002553E-3,1.3685441E-3,3.056009E-3,3.6494117E-3,5.5762813E-3,2.3616697E-3,8.401186E-3,2.7745392E-3,7.033185E-3,9.929085E-3,1.27596725E-2,9.628446E-3,1.818244E-2,2.8577972E-2,7.859342E-3],"categories":[],"categories_nodes":[],"categories_segments":[],"categories_sizes":[],"default_left":[0,0,0,0,0,0,0,0,0,0,0,0,0,0,0,0,0,0,0,0,0,0,0,0,0,0,0,0,0,0,0,0,0,0,0,0,0,0,0,0,0,0,0,0,0,0,0,0,0,0,0,0,0,0,0,0,0],"id":13,"left_children":[1,3,5,7,9,-1,-1,11,13,15,17,19,21,23,25,27,29,-1,31,33,35,37,39,41,43,45,47,49,51,-1,53,55,-1,-1,-1,-1,-1,-1,-1,-1,-1,-1,-1,-1,-1,-1,-1,-1,-1,-1,-1,-1,-1,-1,-1,-1,-1],"loss_changes":[9.5752205E1,3.1371101E1,1.1034561E1,4.4233065E0,6.193659E0,0E0,0E0,5.3823185E-1,7.582521E-1,9.029875E-1,1.3530064E0,4.7273636E-2,6.512374E-2,1.4238088E-1,8.64892E-2,4.6035337E-1,4.9746513E-2,0E0,8.1796646E-2,1.7242432E-3,3.1790733E-3,1.254791E-2,1.4610663E-2,4.353066E-2,4.766953E-2,2.0644307E-2,1.4320493E-2,1.146512E-1,7.107258E-3,0E0,7.191658E-3,1.3722897E-2,0E0,0E0,0E0,0E0,0E0,0E0,0E0,0E0,0E0,0E0,0E0,0E0,0E0,0E0,0E0,0E0,0E0,0E0,0E0,0E0,0E0,0E0,0E0,0E0,0E0],"parents":[2147483647,0,0,1,1,2,2,3,3,4,4,7,7,8,8,9,9,10,10,11,11,12,12,13,13,14,14,15,15,16,16,18,18,19,19,20,20,21,21,22,22,23,23,24,24,25,25,26,26,27,27,28,28,30,30,31,31],"right_children":[2,4,6,8,10,-1,-1,12,14,16,18,20,22,24,26,28,30,-1,32,34,36,38,40,42,44,46,48,50,52,-1,54,56,-1,-1,-1,-1,-1,-1,-1,-1,-1,-1,-1,-1,-1,-1,-1,-1,-1,-1,-1,-1,-1,-1,-1,-1,-1],"split_conditions":[3.8087301E0,1.2144444E0,5.55475E-1,6.227044E-1,3.21575E-1,6.0150158E-2,1.279106E-1,3.0894995E-1,1.39975E-1,1.7896118E0,2.2906268E0,1.7543152E-1,5.0875E-2,8.5875E-2,2.06825E-1,2.00425E-1,1.9851301E0,1.9202577E-2,4.02275E-1,5.6858648E-2,2.68E-2,5.290977E-1,7.0675E-2,9.4931644E-1,9.0011907E-1,9.762066E-1,7.6587194E-1,1.8971E-1,1.4153401E0,1.2746311E-2,3.9088747E-1,3.5054176E0,3.9773997E-2,-3.6214527E-3,-3.4021733E-3,-3.0133042E-3,-2.5139498E-3,-2.207862E-3,-1.3216619E-3,-1.2856981E-3,-3.9065394E-4,-2.3414819E-4,1.6002553E-3,1.3685441E-3,3.056009E-3,3.6494117E-3,5.5762813E-3,2.3616697E-3,8.401186E-3,2.7745392E-3,7.033185E-3,9.929085E-3,1.27596725E-2,9.628446E-3,1.818244E-2,2.8577972E-2,7.859342E-3],"split_indices":[1,1,2,1,2,0,0,1,2,1,1,1,2,2,2,2,1,0,2,1,2,1,2,1,1,1,1,6,1,0,6,8,0,0,0,0,0,0,0,0,0,0,0,0,0,0,0,0,0,0,0,0,0,0,0,0,0],"split_type":[0,0,0,0,0,0,0,0,0,0,0,0,0,0,0,0,0,0,0,0,0,0,0,0,0,0,0,0,0,0,0,0,0,0,0,0,0,0,0,0,0,0,0,0,0,0,0,0,0,0,0,0,0,0,0,0,0],"sum_hessian":[3.474E3,3.438E3,3.6E1,3.129E3,3.09E2,2.7E1,9E0,2.634E3,4.95E2,2.36E2,7.3E1,2.109E3,5.25E2,3.87E2,1.08E2,1.73E2,6.3E1,3.6E1,3.7E1,1.749E3,3.6E2,3.37E2,1.88E2,2.07E2,1.8E2,7.8E1,3E1,1.01E2,7.2E1,2.9E1,3.4E1,2.1E1,1.6E1,1.259E3,4.9E2,2.75E2,8.5E1,2.84E2,5.3E1,1.07E2,8.1E1,1.68E2,3.9E1,1.1E2,7E1,3.6E1,4.2E1,2E0,2.8E1,2.2E1,7.9E1,3.6E1,3.6E1,4E0,3E1,2E1,1E0],"tree_param":{"num_deleted":"0","num_feature":"9","num_nodes":"57","size_leaf_vector":"1"}},{"base_weights":[2.556193E-3,-1.7914623E-2,1.1583045E0,-4.5937628E-2,2.0716837E-1,8.3282065E-1,2.0623617E0,-6.0617074E-2,1.8745366E-2,1.6679929E-1,4.291095E-1,2.007447E-2,4.5452487E-2,5.424538E-2,2.2977707E0,-6.597974E-2,-3.7849583E-2,1.1042302E-3,5.411244E-2,1.1158452E-1,2.236904E-1,1.53979855E-2,2.4322381E-2,1.1933253E-1,3.3002283E-2,-6.771832E-2,-5.6454927E-2,-4.6530634E-2,-2.9396363E-2,-9.551082E-3,1.9930843E-2,3.0967532E-2,7.491155E-2,6.246016E-2,1.2798305E-1,1.7647615E-1,2.5697255E-1,-3.4338646E-3,-3.2197782E-3,-2.8286742E-3,-4.421782E-4,-2.6074518E-3,-2.1103385E-3,-1.9830975E-3,-1.1433345E-3,-9.099973E-4,4.1769992E-5,2.1376205E-4,1.4602904E-3,1.1078626E-3,2.3672523E-3,3.260046E-3,6.5646297E-3,1.0778108E-3,3.6043685E-3,5.8419565E-3,9.115914E-3,1.0669142E-2,7.835384E-3,1.1632353E-2,1.5740253E-2],"categories":[],"categories_nodes":[],"categories_segments":[],"categories_sizes":[],"default_left":[0,0,0,0,0,0,0,0,0,0,0,0,0,0,0,0,0,0,0,0,0,0,0,0,0,0,0,0,0,0,0,0,0,0,0,0,0,0,0,0,0,0,0,0,0,0,0,0,0,0,0,0,0,0,0,0,0,0,0,0,0],"id":14,"left_children":[1,3,5,7,9,11,13,15,17,19,21,-1,-1,-1,23,25,27,29,31,33,35,-1,-1,-1,-1,37,39,41,43,45,47,49,51,53,55,57,59,-1,-1,-1,-1,-1,-1,-1,-1,-1,-1,-1,-1,-1,-1,-1,-1,-1,-1,-1,-1,-1,-1,-1,-1],"loss_changes":[8.5643074E1,2.24453E1,1.6820549E1,3.0053883E0,3.4584904E0,1.2132645E0,1.1887512E0,3.1238365E-1,3.655547E-1,1.0273514E0,2.66984E-1,0E0,0E0,0E0,1.7143631E-1,3.072071E-2,3.488338E-2,7.882691E-2,9.15519E-2,1.3056374E-1,2.1235847E-1,0E0,0E0,0E0,0E0,1.1835098E-3,1.3511181E-3,3.6779046E-3,1.6051874E-2,2.2562854E-2,2.0494267E-2,1.2514263E-2,4.7284186E-2,1.6166657E-2,5.620289E-2,1.8362045E-2,5.900097E-2,0E0,0E0,0E0,0E0,0E0,0E0,0E0,0E0,0E0,0E0,0E0,0E0,0E0,0E0,0E0,0E0,0E0,0E0,0E0,0E0,0E0,0E0,0E0,0E0],"parents":[2147483647,0,0,1,1,2,2,3,3,4,4,5,5,6,6,7,7,8,8,9,9,10,10,14,14,15,15,16,16,17,17,18,18,19,19,20,20,25,25,26,26,27,27,28,28,29,29,30,30,31,31,32,32,33,33,34,34,35,35,36,36],"right_children":[2,4,6,8,10,12,14,16,18,20,22,-1,-1,-1,24,26,28,30,32,34,36,-1,-1,-1,-1,38,40,42,44,46,48,50,52,54,56,58,60,-1,-1,-1,-1,-1,-1,-1,-1,-1,-1,-1,-1,-1,-1,-1,-1,-1,-1,-1,-1,-1,-1,-1,-1],"split_conditions":[2.8739576E0,1.0742527E0,6.076273E0,5.290977E-1,7.966775E-1,1.02234E0,3.402425E0,2.8219852E-1,2.0771001E-1,4.2455503E-1,1.8728392E0,2.007447E-2,4.5452487E-2,5.424538E-2,1.2246469E-16,1.7213942E-1,3.939907E-1,7.5211644E-1,8.493964E-1,2.012275E-1,1.3861746E0,1.53979855E-2,2.4322381E-2,1.1933253E-1,3.3002283E-2,7.165445E-2,1.48055E-1,3.8165003E-2,6.8114385E-2,1.123775E-1,1.19757496E-1,3.2044E-1,4.8141E-1,1.1433624E0,1.6085476E0,1.65E1,1.9851301E0,-3.4338646E-3,-3.2197782E-3,-2.8286742E-3,-4.421782E-4,-2.6074518E-3,-2.1103385E-3,-1.9830975E-3,-1.1433345E-3,-9.099973E-4,4.1769992E-5,2.1376205E-4,1.4602904E-3,1.1078626E-3,2.3672523E-3,3.260046E-3,6.5646297E-3,1.0778108E-3,3.6043685E-3,5.8419565E-3,9.115914E-3,1.0669142E-2,7.835384E-3,1.1632353E-2,1.5740253E-2],"split_indices":[1,1,1,1,6,6,6,1,6,6,1,0,0,0,4,1,1,1,1,6,1,0,0,0,0,1,6,6,6,6,6,6,6,1,1,0,1,0,0,0,0,0,0,0,0,0,0,0,0,0,0,0,0,0,0,0,0,0,0,0,0],"split_type":[0,0,0,0,0,0,0,0,0,0,0,0,0,0,0,0,0,0,0,0,0,0,0,0,0,0,0,0,0,0,0,0,0,0,0,0,0,0,0,0,0,0,0,0,0,0,0,0,0,0,0,0,0,0,0,0,0,0,0,0,0],"sum_hessian":[3.618E3,3.556E3,6.2E1,3.163E3,3.93E2,4.7E1,1.5E1,2.578E3,5.85E2,3.34E2,5.9E1,8E0,3.9E1,4E0,1.1E1,2.085E3,4.93E2,3.91E2,1.94E2,1.71E2,1.63E2,2.1E1,3.8E1,1E1,1E0,1.758E3,3.27E2,2.41E2,2.52E2,2.5E2,1.41E2,9.3E1,1.01E2,4.4E1,1.27E2,7E1,9.3E1,1.349E3,4.09E2,3.26E2,1E0,1E2,1.41E2,9.6E1,1.56E2,1.36E2,1.14E2,5.3E1,8.8E1,6.2E1,3.1E1,8.8E1,1.3E1,9E0,3.5E1,1.08E2,1.9E1,2.1E1,4.9E1,6.9E1,2.4E1],"tree_param":{"num_deleted":"0","num_feature":"9","num_nodes":"61","size_leaf_vector":"1"}},{"base_weights":[1.491337E-3,-2.4106557E-2,7.5596577E-1,-4.601748E-2,1.5951408E-1,5.9769243E-1,1.9883509E0,-5.9162214E-2,6.298573E-3,1.4943878E-1,1.0465645E0,4.1321558E-1,8.2933146E-1,5.907758E-2,1.2555501E-1,-6.31231E-2,-4.0720474E-2,-1.2479437E-2,3.2534875E-2,1.1239042E-1,2.4240392E-1,1.2773384E-2,6.1255373E-2,3.6615062E-1,5.748849E-1,6.676826E-1,5.0304543E-2,-3.2411243E-3,-5.6500893E-2,-4.6538565E-2,-3.5397567E-2,-2.2207776E-2,-3.9779195E-3,1.8910836E-2,4.6543363E-2,8.2406014E-2,1.3817525E-1,2.2199973E-1,3.8033608E-1,1.3611885E-2,1.9931039E-2,1.52416825E-2,3.3590317E-2,7.2803044E-1,2.1667637E-2,-2.8361462E-3,-9.475881E-4,-2.380596E-3,-1.2519732E-3,-2.1151723E-3,-1.6282762E-3,-1.5857037E-3,-9.103822E-4,-6.7515014E-4,2.7455657E-4,1.9547776E-3,5.404233E-4,1.2965403E-3,2.7979638E-3,3.3860714E-3,5.712193E-3,4.269998E-3,7.6135956E-3,1.2733618E-2,1.0200367E-2,2.3421697E-2,1.0708294E-2,1.9335058E-2,3.9459698E-2],"categories":[],"categories_nodes":[],"categories_segments":[],"categories_sizes":[],"default_left":[0,0,0,0,0,0,0,0,0,0,0,0,0,0,0,0,0,0,0,0,0,0,0,0,0,0,0,0,0,0,0,0,0,0,0,0,0,0,0,0,0,0,0,0,0,0,0,0,0,0,0,0,0,0,0,0,0,0,0,0,0,0,0,0,0,0,0,0,0],"id":15,"left_children":[1,3,5,7,9,11,13,15,17,19,21,23,25,-1,-1,27,29,31,33,35,37,-1,-1,39,41,43,-1,-1,45,47,49,51,53,55,57,59,61,63,65,-1,-1,-1,-1,67,-1,-1,-1,-1,-1,-1,-1,-1,-1,-1,-1,-1,-1,-1,-1,-1,-1,-1,-1,-1,-1,-1,-1,-1,-1],"loss_changes":[6.9448296E1,1.4000372E1,2.1827911E1,2.1376834E0,3.1593447E0,4.1869087E0,2.515808E0,1.7887497E-1,3.0832198E-1,1.2402239E0,2.5200367E-1,2.5365257E-1,6.4260674E-1,0E0,0E0,1.9329071E-2,1.2041032E-2,3.0099224E-2,4.8932254E-2,1.9349647E-1,2.0826244E-1,0E0,0E0,4.3949127E-2,1.09295845E-1,6.632042E-2,0E0,0E0,2.4682283E-3,3.6076605E-3,3.218472E-3,5.887054E-3,1.7752072E-2,2.1492332E-2,2.3391902E-2,5.0704002E-2,9.189367E-2,2.7160645E-3,7.534826E-2,0E0,0E0,0E0,0E0,1.12356186E-1,0E0,0E0,0E0,0E0,0E0,0E0,0E0,0E0,0E0,0E0,0E0,0E0,0E0,0E0,0E0,0E0,0E0,0E0,0E0,0E0,0E0,0E0,0E0,0E0,0E0],"parents":[2147483647,0,0,1,1,2,2,3,3,4,4,5,5,6,6,7,7,8,8,9,9,10,10,11,11,12,12,15,15,16,16,17,17,18,18,19,19,20,20,23,23,24,24,25,25,28,28,29,29,30,30,31,31,32,32,33,33,34,34,35,35,36,36,37,37,38,38,43,43],"right_children":[2,4,6,8,10,12,14,16,18,20,22,24,26,-1,-1,28,30,32,34,36,38,-1,-1,40,42,44,-1,-1,46,48,50,52,54,56,58,60,62,64,66,-1,-1,-1,-1,68,-1,-1,-1,-1,-1,-1,-1,-1,-1,-1,-1,-1,-1,-1,-1,-1,-1,-1,-1,-1,-1,-1,-1,-1,-1],"split_conditions":[3.057E-1,1.195E-1,3.402425E0,4.195E-2,4.33E1,3.1E1,5.55475E-1,1.8475E-2,7.7425E-2,2.2165E-1,2.6875E-1,1.6258949E0,4.02275E-1,5.907758E-2,1.2555501E-1,6.125E-3,2.83E-2,1.07E1,9.705E-2,1.55775E-1,3.45E1,1.2773384E-2,6.1255373E-2,3.44525E-1,4.02275E-1,7.0710677E-1,5.0304543E-2,-3.2411243E-3,3.2044E-1,1.86E1,7E0,6.3E0,5.7825E-2,1.07607506E-1,1.1900001E1,2.52E1,1.35E1,4.517856E-1,4.6310753E-1,1.3611885E-2,1.9931039E-2,1.52416825E-2,3.3590317E-2,6.8197244E-1,2.1667637E-2,-2.8361462E-3,-9.475881E-4,-2.380596E-3,-1.2519732E-3,-2.1151723E-3,-1.6282762E-3,-1.5857037E-3,-9.103822E-4,-6.7515014E-4,2.7455657E-4,1.9547776E-3,5.404233E-4,1.2965403E-3,2.7979638E-3,3.3860714E-3,5.712193E-3,4.269998E-3,7.6135956E-3,1.2733618E-2,1.0200367E-2,2.3421697E-2,1.0708294E-2,1.9335058E-2,3.9459698E-2],"split_indices":[2,2,7,2,0,0,2,2,2,2,2,7,2,0,0,2,2,0,2,2,0,0,0,2,2,4,0,0,8,0,0,0,2,8,0,0,0,8,8,0,0,0,0,7,0,0,0,0,0,0,0,0,0,0,0,0,0,0,0,0,0,0,0,0,0,0,0,0,0],"split_type":[0,0,0,0,0,0,0,0,0,0,0,0,0,0,0,0,0,0,0,0,0,0,0,0,0,0,0,0,0,0,0,0,0,0,0,0,0,0,0,0,0,0,0,0,0,0,0,0,0,0,0,0,0,0,0,0,0,0,0,0,0,0,0,0,0,0,0,0,0],"sum_hessian":[3.594E3,3.477E3,1.17E2,3.107E3,3.7E2,1.05E2,1.2E1,2.483E3,6.24E2,3.67E2,3E0,6E1,4.5E1,6E0,6E0,2.042E3,4.41E2,3.64E2,2.6E2,2.64E2,1.03E2,1E0,2E0,4.9E1,1.1E1,2.6E1,1.9E1,1.618E3,4.24E2,2.07E2,2.34E2,1.69E2,1.95E2,1.33E2,1.27E2,1.24E2,1.4E2,9.2E1,1.1E1,1.5E1,3.4E1,4E0,7E0,1.9E1,7E0,4.21E2,3E0,1.96E2,1.1E1,6.4E1,1.7E2,4.8E1,1.21E2,9.7E1,9.8E1,3.7E1,9.6E1,4.1E1,8.6E1,8.7E1,3.7E1,3.1E1,1.09E2,2.8E1,6.4E1,6E0,5E0,4E0,1.5E1],"tree_param":{"num_deleted":"0","num_feature":"9","num_nodes":"69","size_leaf_vector":"1"}},{"base_weights":[1.1454091E-3,-1.540447E-2,1.2072368E0,-3.9449733E-2,2.1395761E-1,8.597989E-1,2.0144172E0,-5.4789737E-2,2.0436049E-2,1.4923602E-1,3.62877E-1,2.9591734E-2,9.4009924E-1,6.814418E-2,1.2356265E-1,-5.994595E-2,-3.5256993E-2,-3.0976685E-3,5.0472505E-2,1.2098106E-1,2.0352729E-1,2.6998937E-1,4.3147272E-1,4.8514124E-2,1.9263333E-2,-3.068351E-3,-5.2880704E-2,-3.5915617E-2,4.7304123E-3,-1.8291641E-2,6.08446E-3,4.708634E-2,1.0145167E-2,8.84874E-2,1.4083797E-1,2.2777143E-1,1.4750096E-1,2.2993599E-1,4.6029586E-1,1.4976266E-2,4.6746662E-1,-2.71877E-3,-1.9821934E-3,-2.0391713E-3,-1.3501392E-3,-1.3443414E-3,-7.1668165E-4,8.063073E-6,1.97095E-3,1.6938735E-3,3.3019127E-3,3.3629106E-3,5.3475685E-3,8.4143905E-3,6.015303E-3,9.363884E-3,1.2811099E-2,2.239364E-3,7.696328E-3,9.94432E-4,1.1740592E-2,2.7584702E-2,7.726683E-3,2.361969E-2,6.513107E-3],"categories":[],"categories_nodes":[],"categories_segments":[],"categories_sizes":[],"default_left":[0,0,0,0,0,0,0,0,0,0,0,0,0,0,0,0,0,0,0,0,0,0,0,0,0,0,0,0,0,0,0,0,0,0,0,0,0,0,0,0,0,0,0,0,0,0,0,0,0,0,0,0,0,0,0,0,0,0,0,0,0,0,0,0,0],"id":16,"left_children":[1,3,5,7,9,11,13,15,17,19,21,-1,23,-1,-1,25,27,29,31,33,35,37,39,-1,-1,-1,41,43,-1,45,47,49,-1,51,53,55,57,59,61,-1,63,-1,-1,-1,-1,-1,-1,-1,-1,-1,-1,-1,-1,-1,-1,-1,-1,-1,-1,-1,-1,-1,-1,-1,-1],"loss_changes":[7.2256256E1,1.9702763E1,1.2009804E1,2.971109E0,3.2132292E0,2.1825027E-1,7.989807E-1,2.571268E-1,4.666902E-1,3.404684E-1,5.3342056E-1,0E0,6.1595917E-2,0E0,0E0,1.7187119E-2,4.9585283E-2,5.1870614E-2,1.401313E-1,9.012818E-2,7.5068235E-2,2.4479222E-1,1.3069153E-1,0E0,0E0,0E0,4.729569E-3,2.22404E-2,0E0,4.377391E-3,4.5801364E-2,6.910777E-2,0E0,1.7501056E-2,3.4422755E-2,1.4227152E-2,1.0925949E-2,3.6296606E-2,1.1036742E-1,0E0,9.9077225E-3,0E0,0E0,0E0,0E0,0E0,0E0,0E0,0E0,0E0,0E0,0E0,0E0,0E0,0E0,0E0,0E0,0E0,0E0,0E0,0E0,0E0,0E0,0E0,0E0],"parents":[2147483647,0,0,1,1,2,2,3,3,4,4,5,5,6,6,7,7,8,8,9,9,10,10,12,12,15,15,16,16,17,17,18,18,19,19,20,20,21,21,22,22,26,26,27,27,29,29,30,30,31,31,33,33,34,34,35,35,36,36,37,37,38,38,40,40],"right_children":[2,4,6,8,10,12,14,16,18,20,22,-1,24,-1,-1,26,28,30,32,34,36,38,40,-1,-1,-1,42,44,-1,46,48,50,-1,52,54,56,58,60,62,-1,64,-1,-1,-1,-1,-1,-1,-1,-1,-1,-1,-1,-1,-1,-1,-1,-1,-1,-1,-1,-1,-1,-1,-1,-1],"split_conditions":[1.6258949E0,1.473E-1,3.402425E0,4.8675E-2,6.8197244E-1,3.1E1,5.55475E-1,1.8475E-2,8.7925E-2,2.2165E-1,3.057E-1,2.9591734E-2,9.659258E-1,6.814418E-2,1.2356265E-1,7.65E-3,3.1172502E-1,1.01E1,5.712925E-1,1.77E1,6.092E-1,3.45E1,1.99E1,4.8514124E-2,1.9263333E-2,-3.068351E-3,5.53925E-2,6.6668265E-2,4.7304123E-3,6.3E0,2.012275E-1,1.1655E-1,1.0145167E-2,1.71775E-1,-2.5881904E-1,5.712925E-1,4.5092002E-1,1.518E-1,0E0,1.4976266E-2,2.2155201E0,-2.71877E-3,-1.9821934E-3,-2.0391713E-3,-1.3501392E-3,-1.3443414E-3,-7.1668165E-4,8.063073E-6,1.97095E-3,1.6938735E-3,3.3019127E-3,3.3629106E-3,5.3475685E-3,8.4143905E-3,6.015303E-3,9.363884E-3,1.2811099E-2,2.239364E-3,7.696328E-3,9.94432E-4,1.1740592E-2,2.7584702E-2,7.726683E-3,2.361969E-2,6.513107E-3],"split_indices":[6,2,6,2,6,0,2,2,2,2,2,0,4,0,0,2,6,0,6,0,7,0,0,0,0,0,6,6,0,0,6,2,0,2,4,6,6,2,4,0,7,0,0,0,0,0,0,0,0,0,0,0,0,0,0,0,0,0,0,0,0,0,0,0,0],"split_type":[0,0,0,0,0,0,0,0,0,0,0,0,0,0,0,0,0,0,0,0,0,0,0,0,0,0,0,0,0,0,0,0,0,0,0,0,0,0,0,0,0,0,0,0,0,0,0,0,0,0,0,0,0,0,0,0,0,0,0,0,0,0,0,0,0],"sum_hessian":[3.618E3,3.57E3,4.8E1,3.232E3,3.38E2,3.5E1,1.3E1,2.573E3,6.59E2,2.37E2,1.01E2,1E1,2.5E1,7E0,6E0,2.034E3,5.39E2,3.7E2,2.89E2,1.58E2,7.9E1,4.5E1,5.6E1,2.3E1,2E0,1.687E3,3.47E2,5.37E2,2E0,1.39E2,2.31E2,2.84E2,5E0,6.2E1,9.6E1,5.3E1,2.6E1,3.9E1,6E0,1.4E1,4.2E1,3.09E2,3.8E1,3.45E2,1.92E2,4.2E1,9.7E1,1.97E2,3.4E1,1.69E2,1.15E2,3.1E1,3.1E1,3.8E1,5.8E1,2.5E1,2.8E1,2E0,2.4E1,1E0,3.8E1,4E0,2E0,4.1E1,1E0],"tree_param":{"num_deleted":"0","num_feature":"9","num_nodes":"65","size_leaf_vector":"1"}},{"base_weights":[8.266281E-4,-1.7247269E-2,9.0953046E-1,-3.954649E-2,1.7697556E-1,6.936177E-1,8.772411E-2,-5.331347E-2,8.864965E-3,1.2958817E-1,3.104738E-1,4.7916883E-1,8.173165E-1,-5.697988E-2,-3.61089E-2,-7.874563E-3,3.7636135E-2,9.936965E-2,1.7067274E-1,3.4268802E-1,1.7757058E-1,5.0794E-1,1.0416401E-2,4.351897E-2,5.614186E-1,-5.831933E-2,-5.0318215E-2,-3.665979E-2,5.2397223E-3,-1.1075024E-2,3.487763E-2,3.4026835E-2,1.3651994E-1,8.505861E-2,1.1889695E-1,1.8528874E-1,1.2043553E-1,3.043481E-1,4.437073E-1,1.4033344E-3,9.591532E-3,1.0618898E-2,2.63937E-2,8.335412E-3,2.9495943E-2,-2.9578102E-3,-2.8006842E-3,-2.5721847E-3,-1.8186622E-3,-1.977725E-3,-1.0786745E-3,-8.9564093E-4,-1.4925385E-5,3.9337585E-3,8.500161E-4,1.136063E-3,2.3473282E-3,8.89949E-3,2.0092588E-3,4.8504835E-3,2.7567127E-3,8.439549E-3,5.110898E-3,7.413085E-3,1.0586674E-2,4.0694694E-3,6.9887713E-3,1.8736472E-2,1.2932335E-2,2.33327E-2,8.288673E-3],"categories":[],"categories_nodes":[],"categories_segments":[],"categories_sizes":[],"default_left":[0,0,0,0,0,0,0,0,0,0,0,0,0,0,0,0,0,0,0,0,0,0,0,0,0,0,0,0,0,0,0,0,0,0,0,0,0,0,0,0,0,0,0,0,0,0,0,0,0,0,0,0,0,0,0,0,0,0,0,0,0,0,0,0,0,0,0,0,0,0,0],"id":17,"left_children":[1,3,5,7,9,11,-1,13,15,17,19,21,23,25,27,29,31,33,35,37,39,41,-1,-1,43,45,47,49,-1,51,53,55,57,59,61,63,65,67,69,-1,-1,-1,-1,-1,-1,-1,-1,-1,-1,-1,-1,-1,-1,-1,-1,-1,-1,-1,-1,-1,-1,-1,-1,-1,-1,-1,-1,-1,-1,-1,-1],"loss_changes":[6.0636005E1,1.5685282E1,1.1918442E1,2.1651983E0,2.3194132E0,1.1734657E0,0E0,1.5746927E-1,3.4705976E-1,3.2694006E-1,3.5444164E-1,8.119917E-2,1.8501282E-4,1.5651703E-2,3.8539052E-2,6.2779255E-2,8.9933544E-2,3.5158753E-2,6.2859535E-2,1.6318512E-1,3.938651E-2,1.16176605E-2,0E0,0E0,2.8998852E-3,2.0980835E-5,3.7161708E-3,1.862371E-2,0E0,3.131188E-2,2.3717918E-2,3.6472023E-2,2.880235E-2,2.934134E-2,3.7670612E-2,5.477476E-2,1.0523081E-2,9.285259E-2,4.3816805E-2,0E0,0E0,0E0,0E0,0E0,0E0,0E0,0E0,0E0,0E0,0E0,0E0,0E0,0E0,0E0,0E0,0E0,0E0,0E0,0E0,0E0,0E0,0E0,0E0,0E0,0E0,0E0,0E0,0E0,0E0,0E0,0E0],"parents":[2147483647,0,0,1,1,2,2,3,3,4,4,5,5,7,7,8,8,9,9,10,10,11,11,12,12,13,13,14,14,15,15,16,16,17,17,18,18,19,19,20,20,21,21,24,24,25,25,26,26,27,27,29,29,30,30,31,31,32,32,33,33,34,34,35,35,36,36,37,37,38,38],"right_children":[2,4,6,8,10,12,-1,14,16,18,20,22,24,26,28,30,32,34,36,38,40,42,-1,-1,44,46,48,50,-1,52,54,56,58,60,62,64,66,68,70,-1,-1,-1,-1,-1,-1,-1,-1,-1,-1,-1,-1,-1,-1,-1,-1,-1,-1,-1,-1,-1,-1,-1,-1,-1,-1,-1,-1,-1,-1,-1,-1],"split_conditions":[1.1879901E0,1.329E-1,3.402425E0,4.195E-2,6.49545E-1,1.6258949E0,8.772411E-2,1.8475E-2,8.5875E-2,1.913E-1,1.0233775E0,2.2155201E0,7.0710677E-1,7.65E-3,3.3039752E-1,2.39945E-1,4.11165E-1,3.813225E-1,6.0937726E-1,9.5896995E-1,2.06825E-1,3.057E-1,1.0416401E-2,4.351897E-2,3.44525E-1,1.825E-3,6.25175E-2,8.7951235E-2,5.2397223E-3,6.4525E-2,1.504824E-1,1.0525E-1,3.967625E-1,2.9728E-1,3.579725E-1,2.2165E-1,2.50825E-1,5.04385E-1,1.0520475E0,1.4033344E-3,9.591532E-3,1.0618898E-2,2.63937E-2,8.335412E-3,2.9495943E-2,-2.9578102E-3,-2.8006842E-3,-2.5721847E-3,-1.8186622E-3,-1.977725E-3,-1.0786745E-3,-8.9564093E-4,-1.4925385E-5,3.9337585E-3,8.500161E-4,1.136063E-3,2.3473282E-3,8.89949E-3,2.0092588E-3,4.8504835E-3,2.7567127E-3,8.439549E-3,5.110898E-3,7.413085E-3,1.0586674E-2,4.0694694E-3,6.9887713E-3,1.8736472E-2,1.2932335E-2,2.33327E-2,8.288673E-3],"split_indices":[6,2,6,2,6,6,0,2,2,2,8,7,4,2,6,6,6,6,8,6,2,2,0,0,2,2,6,6,0,2,8,2,8,8,7,2,2,8,7,0,0,0,0,0,0,0,0,0,0,0,0,0,0,0,0,0,0,0,0,0,0,0,0,0,0,0,0,0,0,0,0],"split_type":[0,0,0,0,0,0,0,0,0,0,0,0,0,0,0,0,0,0,0,0,0,0,0,0,0,0,0,0,0,0,0,0,0,0,0,0,0,0,0,0,0,0,0,0,0,0,0,0,0,0,0,0,0,0,0,0,0,0,0,0,0,0,0,0,0,0,0,0,0,0,0],"sum_hessian":[3.69E3,3.619E3,7.1E1,3.247E3,3.72E2,5.8E1,1.3E1,2.528E3,7.19E2,2.76E2,9.6E1,2.3E1,3.5E1,2.082E3,4.46E2,4.55E2,2.64E2,1.61E2,1.15E2,7.6E1,2E1,2E1,3E0,2.7E1,8E0,1.727E3,3.55E2,4.45E2,1E0,4.24E2,3.1E1,2.56E2,8E0,9.6E1,6.5E1,8.7E1,2.8E1,5.8E1,1.8E1,2E0,1.8E1,2E0,1.8E1,1E0,7E0,1.249E3,4.78E2,3.26E2,2.9E1,3.72E2,7.3E1,2.59E2,1.65E2,8E0,2.3E1,1.38E2,1.18E2,5E0,3E0,6.7E1,2.9E1,1.4E1,5.1E1,3.9E1,4.8E1,1.1E1,1.7E1,2E1,3.8E1,1.6E1,2E0],"tree_param":{"num_deleted":"0","num_feature":"9","num_nodes":"71","size_leaf_vector":"1"}},{"base_weights":[3.5457226E-4,-1.733402E-2,7.781945E-1,-3.880442E-2,1.5357749E-1,6.120594E-1,8.204662E-2,-4.964529E-2,1.1979703E-2,1.0171306E-1,2.3800524E-1,4.958375E-1,3.9981525E-2,-5.3551573E-2,-2.948782E-2,-1.3999742E-3,4.062509E-2,8.559693E-2,1.7318204E-1,1.9511911E-1,3.2897174E-1,1.4426543E-2,2.7416194E-2,-5.52992E-2,-4.5659523E-2,-3.466136E-2,-2.0752894E-2,-1.138523E-2,9.500987E-3,2.7548974E-2,6.375336E-2,3.3365194E-2,9.515005E-2,6.708316E-3,1.959067E-1,1.5908654E-1,1.2097427E-2,2.3810323E-1,1.9310893E-2,-2.811874E-3,-2.6574978E-3,-2.3370578E-3,-1.9427072E-3,-1.3856272E-3,-1.8416649E-3,-1.2044943E-3,-6.9381174E-4,-2.0702109E-4,-9.526463E-4,8.4718113E-4,-1.0056703E-4,7.9671614E-4,2.1807293E-3,2.869808E-3,5.6230812E-3,2.7141224E-3,4.5276442E-4,3.9787176E-3,5.6719556E-3,1.0494275E-2,4.900723E-3,8.1997765E-3,4.378659E-3,3.4153492E-3,1.2172239E-2],"categories":[],"categories_nodes":[],"categories_segments":[],"categories_sizes":[],"default_left":[0,0,0,0,0,0,0,0,0,0,0,0,0,0,0,0,0,0,0,0,0,0,0,0,0,0,0,0,0,0,0,0,0,0,0,0,0,0,0,0,0,0,0,0,0,0,0,0,0,0,0,0,0,0,0,0,0,0,0,0,0,0,0,0,0],"id":18,"left_children":[1,3,5,7,9,11,-1,13,15,17,19,21,-1,23,25,27,29,31,33,35,37,-1,-1,39,41,43,45,47,49,51,53,55,57,-1,59,61,-1,63,-1,-1,-1,-1,-1,-1,-1,-1,-1,-1,-1,-1,-1,-1,-1,-1,-1,-1,-1,-1,-1,-1,-1,-1,-1,-1,-1],"loss_changes":[4.8265923E1,1.2592476E1,1.0175472E1,1.6786528E0,1.6528711E0,1.0641041E0,0E0,1.9621754E-1,2.0587075E-1,2.6045752E-1,5.014858E-1,3.205452E-1,0E0,2.6481152E-2,1.7808765E-2,4.0055715E-2,4.9958825E-2,9.512365E-2,1.1840463E-2,1.3193488E-1,1.4212465E-1,0E0,0E0,4.7302246E-4,1.0325313E-3,2.8429031E-3,3.2225624E-3,1.0586901E-2,1.5114119E-2,2.0017236E-2,1.2433648E-2,1.578034E-2,3.826058E-2,0E0,1.3638616E-2,6.7019463E-3,0E0,1.5105009E-3,0E0,0E0,0E0,0E0,0E0,0E0,0E0,0E0,0E0,0E0,0E0,0E0,0E0,0E0,0E0,0E0,0E0,0E0,0E0,0E0,0E0,0E0,0E0,0E0,0E0,0E0,0E0],"parents":[2147483647,0,0,1,1,2,2,3,3,4,4,5,5,7,7,8,8,9,9,10,10,11,11,13,13,14,14,15,15,16,16,17,17,18,18,19,19,20,20,23,23,24,24,25,25,26,26,27,27,28,28,29,29,30,30,31,31,32,32,34,34,35,35,37,37],"right_children":[2,4,6,8,10,12,-1,14,16,18,20,22,-1,24,26,28,30,32,34,36,38,-1,-1,40,42,44,46,48,50,52,54,56,58,-1,60,62,-1,64,-1,-1,-1,-1,-1,-1,-1,-1,-1,-1,-1,-1,-1,-1,-1,-1,-1,-1,-1,-1,-1,-1,-1,-1,-1,-1,-1],"split_conditions":[2.4687016E0,1.0439342E0,6.076273E0,5.3697574E-1,2.145E-1,3.8087301E0,8.204662E-2,3.1678653E-1,1.02025E-1,1.6579603E0,3.21575E-1,7.2212255E-1,3.9981525E-2,1.7213942E-1,4.685E-2,6.925253E-1,1.39975E-1,1.5665E-1,1.8728392E0,1.6085476E0,1.5569937E0,1.4426543E-2,2.7416194E-2,4.56096E-2,3.1375E-2,7.7000003E0,6.8975E-2,1.3E1,1.97E1,8.2014024E-1,2.594E-1,2.26E1,1.59675E-1,6.708316E-3,3.5100002E1,3.22E1,1.2097427E-2,1.102468E0,1.9310893E-2,-2.811874E-3,-2.6574978E-3,-2.3370578E-3,-1.9427072E-3,-1.3856272E-3,-1.8416649E-3,-1.2044943E-3,-6.9381174E-4,-2.0702109E-4,-9.526463E-4,8.4718113E-4,-1.0056703E-4,7.9671614E-4,2.1807293E-3,2.869808E-3,5.6230812E-3,2.7141224E-3,4.5276442E-4,3.9787176E-3,5.6719556E-3,1.0494275E-2,4.900723E-3,8.1997765E-3,4.378659E-3,3.4153492E-3,1.2172239E-2],"split_indices":[1,1,1,1,2,1,0,1,2,1,2,6,0,1,2,1,2,6,1,1,1,0,0,1,2,0,2,0,0,1,2,0,2,0,0,0,0,1,0,0,0,0,0,0,0,0,0,0,0,0,0,0,0,0,0,0,0,0,0,0,0,0,0,0,0],"split_type":[0,0,0,0,0,0,0,0,0,0,0,0,0,0,0,0,0,0,0,0,0,0,0,0,0,0,0,0,0,0,0,0,0,0,0,0,0,0,0,0,0,0,0,0,0,0,0,0,0,0,0,0,0,0,0,0,0,0,0,0,0,0,0,0,0],"sum_hessian":[3.506E3,3.429E3,7.7E1,3.047E3,3.82E2,6.6E1,1.1E1,2.511E3,5.36E2,2.38E2,1.44E2,4.3E1,2.3E1,2.102E3,4.09E2,3.66E2,1.7E2,1.96E2,4.2E1,1E2,4.4E1,1E1,3.3E1,1.716E3,3.86E2,2.55E2,1.54E2,1.91E2,1.75E2,1.1E2,6E1,3.1E1,1.65E2,1.8E1,2.4E1,5.9E1,4.1E1,1.9E1,2.5E1,1.177E3,5.39E2,3.28E2,5.8E1,6.4E1,1.91E2,1.02E2,5.2E1,9.9E1,9.2E1,1.06E2,6.9E1,6.5E1,4.5E1,5.5E1,5E0,1.6E1,1.5E1,9.2E1,7.3E1,2E1,4E0,5.4E1,5E0,1E0,1.8E1],"tree_param":{"num_deleted":"0","num_feature":"9","num_nodes":"65","size_leaf_vector":"1"}},{"base_weights":[4.667649E-4,-1.4172993E-2,9.756909E-1,-3.529793E-2,1.7508161E-1,7.2167027E-1,1.6822397E0,-4.8107494E-2,9.494111E-3,1.1001541E-1,2.769267E-1,7.4343115E-1,1.6998244E-2,9.0553656E-2,3.24552E-2,-5.1957097E-2,-3.461256E-2,-7.5237793E-3,3.7755683E-2,8.957654E-2,1.4380871E-1,2.37636E-1,4.0652296E-1,4.104795E-2,5.3715205E-1,-2.6538721E-3,-4.792552E-2,-3.5828106E-2,-2.8071993E-3,-8.405217E-3,4.4666026E-3,3.3252165E-2,1.2843272E-1,9.488994E-2,3.2004405E-2,1.5301536E-1,8.529682E-2,2.615835E-1,1.2824927E-1,4.722381E-1,1.4884434E-2,7.6442542E-3,5.564339E-1,-2.4250657E-3,-1.844397E-3,-2.0041745E-3,-1.4935095E-3,1.3049459E-3,-5.571935E-4,-6.9854484E-4,-5.217511E-6,1.2823432E-3,2.5496932E-3,7.166702E-3,1.7975391E-3,3.992205E-3,5.6769596E-3,-2.0300194E-4,2.4242082E-3,3.4251416E-3,7.7953264E-3,8.0849754E-4,4.485495E-3,7.7142003E-3,1.3763182E-2,1.2424141E-3,6.8912893E-3,2.7202839E-2,1.4595878E-2,8.092296E-3,2.8879613E-2],"categories":[],"categories_nodes":[],"categories_segments":[],"categories_sizes":[],"default_left":[0,0,0,0,0,0,0,0,0,0,0,0,0,0,0,0,0,0,0,0,0,0,0,0,0,0,0,0,0,0,0,0,0,0,0,0,0,0,0,0,0,0,0,0,0,0,0,0,0,0,0,0,0,0,0,0,0,0,0,0,0,0,0,0,0,0,0,0,0,0,0],"id":19,"left_children":[1,3,5,7,9,11,13,15,17,19,21,23,-1,-1,-1,25,27,29,31,33,35,37,39,-1,41,-1,43,45,47,49,-1,51,53,55,57,59,61,63,65,67,-1,-1,69,-1,-1,-1,-1,-1,-1,-1,-1,-1,-1,-1,-1,-1,-1,-1,-1,-1,-1,-1,-1,-1,-1,-1,-1,-1,-1,-1,-1],"loss_changes":[5.0197643E1,1.3855224E1,8.118832E0,1.7888868E0,2.2756147E0,7.9509735E-2,5.5475616E-1,1.2412834E-1,3.34065E-1,1.349268E-1,5.90806E-1,1.5073967E-1,0E0,0E0,0E0,5.9661865E-3,2.0814896E-2,3.7802458E-2,1.0231283E-1,3.8566113E-2,2.9505491E-2,2.4412346E-1,7.398176E-2,0E0,1.125145E-2,0E0,8.801818E-4,1.2011766E-2,5.351438E-3,1.991073E-2,0E0,3.2424897E-2,1.1384249E-2,2.5728226E-2,7.92318E-3,5.690813E-3,2.5151968E-3,8.376789E-2,1.7369896E-2,6.1337233E-2,0E0,0E0,6.7050457E-3,0E0,0E0,0E0,0E0,0E0,0E0,0E0,0E0,0E0,0E0,0E0,0E0,0E0,0E0,0E0,0E0,0E0,0E0,0E0,0E0,0E0,0E0,0E0,0E0,0E0,0E0,0E0,0E0],"parents":[2147483647,0,0,1,1,2,2,3,3,4,4,5,5,6,6,7,7,8,8,9,9,10,10,11,11,15,15,16,16,17,17,18,18,19,19,20,20,21,21,22,22,24,24,26,26,27,27,28,28,29,29,31,31,32,32,33,33,34,34,35,35,36,36,37,37,38,38,39,39,42,42],"right_children":[2,4,6,8,10,12,14,16,18,20,22,24,-1,-1,-1,26,28,30,32,34,36,38,40,-1,42,-1,44,46,48,50,-1,52,54,56,58,60,62,64,66,68,-1,-1,70,-1,-1,-1,-1,-1,-1,-1,-1,-1,-1,-1,-1,-1,-1,-1,-1,-1,-1,-1,-1,-1,-1,-1,-1,-1,-1,-1,-1],"split_conditions":[1.6258949E0,1.35825E-1,3.402425E0,4.195E-2,5.92635E-1,9.659258E-1,1.2246469E-16,1.41E-2,8.5875E-2,1.913E-1,1.02234E0,2.2155201E0,1.6998244E-2,9.0553656E-2,3.24552E-2,4.2E-3,1.40855E-1,4.11165E-1,4.11165E-1,6.0937726E-1,7.2212255E-1,9.603551E-1,0E0,4.104795E-2,3.44525E-1,-2.6538721E-3,4.6263017E-2,4.76075E-2,1.4514E-1,6.4525E-2,4.4666026E-3,2.5059503E-1,6.092E-1,3.813225E-1,2.9649502E-1,-9.659258E-1,4.5092002E-1,2.06825E-1,2.06825E-1,1.4378024E0,1.4884434E-2,7.6442542E-3,-8.660254E-1,-2.4250657E-3,-1.844397E-3,-2.0041745E-3,-1.4935095E-3,1.3049459E-3,-5.571935E-4,-6.9854484E-4,-5.217511E-6,1.2823432E-3,2.5496932E-3,7.166702E-3,1.7975391E-3,3.992205E-3,5.6769596E-3,-2.0300194E-4,2.4242082E-3,3.4251416E-3,7.7953264E-3,8.0849754E-4,4.485495E-3,7.7142003E-3,1.3763182E-2,1.2424141E-3,6.8912893E-3,2.7202839E-2,1.4595878E-2,8.092296E-3,2.8879613E-2],"split_indices":[6,2,6,2,6,4,4,2,2,2,6,7,0,0,0,2,6,6,6,8,8,8,4,0,2,0,6,6,6,2,0,6,7,6,6,5,6,2,2,8,0,0,4,0,0,0,0,0,0,0,0,0,0,0,0,0,0,0,0,0,0,0,0,0,0,0,0,0,0,0,0],"split_type":[0,0,0,0,0,0,0,0,0,0,0,0,0,0,0,0,0,0,0,0,0,0,0,0,0,0,0,0,0,0,0,0,0,0,0,0,0,0,0,0,0,0,0,0,0,0,0,0,0,0,0,0,0,0,0,0,0,0,0,0,0,0,0,0,0,0,0,0,0,0,0],"sum_hessian":[3.514E3,3.463E3,5.1E1,3.116E3,3.47E2,3.9E1,1.2E1,2.423E3,6.93E2,2.13E2,1.34E2,3.6E1,3E0,1E1,2E0,1.883E3,5.4E2,4.33E2,2.6E2,1.35E2,7.8E1,1.05E2,2.9E1,2.4E1,1.2E1,1.464E3,4.19E2,5.2E2,2E1,4.3E2,3E0,2.49E2,1.1E1,1.23E2,1.2E1,6.6E1,1.2E1,8.5E1,2E1,1.6E1,1.3E1,1E0,1.1E1,3.95E2,2.4E1,3E2,2.2E2,4E0,1.6E1,2.57E2,1.73E2,1.76E2,7.3E1,9E0,2E0,7.1E1,5.2E1,4E0,8E0,3E0,6.3E1,1E0,1.1E1,1.1E1,7.4E1,2E0,1.8E1,1E1,6E0,1E0,1E1],"tree_param":{"num_deleted":"0","num_feature":"9","num_nodes":"71","size_leaf_vector":"1"}},{"base_weights":[3.50412E-3,-9.402676E-3,1.1646949E0,-3.2895096E-2,1.8879254E-1,3.779659E-2,1.7050463E0,-4.464956E-2,1.6696217E-2,1.338785E-1,3.7838626E-1,1.8601499E0,3.873492E-2,-4.8369247E-2,-2.6713502E-2,7.3734983E-3,6.12668E-2,9.282321E-2,1.8231724E-1,3.1283644E-1,5.570173E-1,4.070081E-2,1.0462941E-1,-4.9781907E-2,-4.0884078E-2,-2.9867223E-2,-1.5467256E-2,-3.5190221E-3,2.408954E-2,3.854516E-2,7.7286914E-2,5.5943664E-2,1.027816E-1,1.659113E-1,1.3294749E-2,2.2594799E-1,1.8202694E-2,1.0966807E-2,2.9050935E-2,-2.5373239E-3,-2.3899905E-3,-2.0977189E-3,-1.7603971E-3,-1.9213933E-3,-1.3777156E-3,-1.214509E-3,-6.6578266E-4,-5.1720836E-4,3.0753892E-4,1.9702644E-3,3.9469363E-4,6.322554E-4,2.2334463E-3,4.365859E-3,2.3389966E-3,3.3202525E-3,1.3065484E-3,4.8306207E-3,8.172455E-3,7.2388607E-3,9.731499E-3,2.4959438E-3,1.1549621E-2],"categories":[],"categories_nodes":[],"categories_segments":[],"categories_sizes":[],"default_left":[0,0,0,0,0,0,0,0,0,0,0,0,0,0,0,0,0,0,0,0,0,0,0,0,0,0,0,0,0,0,0,0,0,0,0,0,0,0,0,0,0,0,0,0,0,0,0,0,0,0,0,0,0,0,0,0,0,0,0,0,0,0,0],"id":20,"left_children":[1,3,5,7,9,-1,11,13,15,17,19,21,-1,23,25,27,29,31,33,35,37,-1,-1,39,41,43,45,47,49,51,53,55,57,59,-1,61,-1,-1,-1,-1,-1,-1,-1,-1,-1,-1,-1,-1,-1,-1,-1,-1,-1,-1,-1,-1,-1,-1,-1,-1,-1,-1,-1],"loss_changes":[5.317074E1,1.6344414E1,7.3252563E0,1.8299465E0,3.8223677E0,0E0,8.677521E-1,1.6796732E-1,2.4969067E-1,5.5978966E-1,7.9761124E-1,1.4576988E0,0E0,2.0170212E-2,1.5072823E-2,9.09426E-2,3.487733E-2,5.264449E-2,1.3687992E-1,1.9810581E-1,4.2762756E-2,0E0,0E0,9.4270706E-4,5.824566E-4,5.692959E-3,1.5369374E-3,2.0060953E-2,4.8554532E-2,6.5724105E-3,1.4274865E-2,9.492531E-3,3.0618072E-2,4.0406227E-2,0E0,1.15561485E-2,0E0,0E0,0E0,0E0,0E0,0E0,0E0,0E0,0E0,0E0,0E0,0E0,0E0,0E0,0E0,0E0,0E0,0E0,0E0,0E0,0E0,0E0,0E0,0E0,0E0,0E0,0E0],"parents":[2147483647,0,0,1,1,2,2,3,3,4,4,6,6,7,7,8,8,9,9,10,10,11,11,13,13,14,14,15,15,16,16,17,17,18,18,19,19,20,20,23,23,24,24,25,25,26,26,27,27,28,28,29,29,30,30,31,31,32,32,33,33,35,35],"right_children":[2,4,6,8,10,-1,12,14,16,18,20,22,-1,24,26,28,30,32,34,36,38,-1,-1,40,42,44,46,48,50,52,54,56,58,60,-1,62,-1,-1,-1,-1,-1,-1,-1,-1,-1,-1,-1,-1,-1,-1,-1,-1,-1,-1,-1,-1,-1,-1,-1,-1,-1,-1,-1],"split_conditions":[3.8087301E0,1.1433624E0,3.402425E0,5.4602575E-1,1.9851301E0,3.779659E-2,1.2246469E-16,3.1678653E-1,1.329E-1,2.00425E-1,4.02275E-1,3.7E1,3.873492E-2,1.8700726E-1,5.8825E-2,7.6587194E-1,9.210692E-1,2.0771001E-1,3.63175E-1,2.594E-1,-1.8369701E-16,4.070081E-2,1.0462941E-1,4.8102286E-2,3.1375E-2,2.5142502E-2,4.012598E-1,7.6125E-2,1.8800001E1,7.0420593E-1,2.26E1,2.7800001E1,1.8728392E0,1.5569937E0,1.3294749E-2,-8.660254E-1,1.8202694E-2,1.0966807E-2,2.9050935E-2,-2.5373239E-3,-2.3899905E-3,-2.0977189E-3,-1.7603971E-3,-1.9213933E-3,-1.3777156E-3,-1.214509E-3,-6.6578266E-4,-5.1720836E-4,3.0753892E-4,1.9702644E-3,3.9469363E-4,6.322554E-4,2.2334463E-3,4.365859E-3,2.3389966E-3,3.3202525E-3,1.3065484E-3,4.8306207E-3,8.172455E-3,7.2388607E-3,9.731499E-3,2.4959438E-3,1.1549621E-2],"split_indices":[1,1,6,1,1,0,4,1,2,2,2,0,0,1,2,1,1,6,2,2,5,0,0,1,2,6,1,2,0,1,0,0,1,1,0,5,0,0,0,0,0,0,0,0,0,0,0,0,0,0,0,0,0,0,0,0,0,0,0,0,0,0,0],"split_type":[0,0,0,0,0,0,0,0,0,0,0,0,0,0,0,0,0,0,0,0,0,0,0,0,0,0,0,0,0,0,0,0,0,0,0,0,0,0,0,0,0,0,0,0,0,0,0,0,0,0,0,0,0,0,0,0,0,0,0,0,0,0,0],"sum_hessian":[3.546E3,3.508E3,3.8E1,3.137E3,3.71E2,2.3E1,1.5E1,2.536E3,6.01E2,2.89E2,8.2E1,1.2E1,3E0,2.099E3,4.37E2,4.98E2,1.03E2,1.58E2,1.31E2,6.2E1,2E1,3E0,9E0,1.761E3,3.38E2,3.4E2,9.7E1,3.02E2,1.96E2,4.4E1,5.9E1,3.5E1,1.23E2,1.12E2,1.9E1,2.5E1,3.7E1,2E0,1.8E1,1.168E3,5.93E2,2.79E2,5.9E1,6.9E1,2.71E2,1.7E1,8E1,1.77E2,1.25E2,1E2,9.6E1,9E0,3.5E1,4.3E1,1.6E1,2.5E1,1E1,1.14E2,9E0,6.8E1,4.4E1,1E0,2.4E1],"tree_param":{"num_deleted":"0","num_feature":"9","num_nodes":"63","size_leaf_vector":"1"}},{"base_weights":[-7.3652895E-4,-1.4987935E-2,7.4962306E-1,-3.135352E-2,1.4909829E-1,5.7391244E-1,1.5280809E0,-4.2298865E-2,1.1994083E-2,1.0261545E-1,2.1739824E-1,4.6997306E-1,7.0991665E-1,3.204941E-2,1.6539918E0,-4.626491E-2,-2.7254084E-2,3.12864E-3,4.6644174E-2,7.829836E-2,1.2856692E-1,2.9269928E-1,1.8935727E-1,1.7288256E-2,2.5818024E-2,7.362579E-1,4.5772865E-3,9.158746E-2,3.4394704E-2,-2.38106E-3,-4.126526E-2,-3.5569306E-2,-2.0170191E-2,-8.621043E-3,1.3290708E-2,6.101473E-2,2.415546E-2,9.813119E-2,4.6795726E-2,1.4423284E-1,7.64373E-2,2.3016569E-1,1.9273626E-2,1.6224182E-1,2.3908393E-1,3.7819173E-2,8.846781E-3,-2.167803E-3,-1.8311561E-3,-1.9821094E-3,-1.5930309E-3,1.1626325E-3,-1.0367305E-3,-7.971016E-4,6.3973435E-5,2.902037E-4,1.4098631E-3,2.2589888E-3,3.557218E-3,4.1130307E-4,1.9271566E-3,3.7059553E-3,5.8327E-3,2.91171E-3,3.900376E-4,1.525292E-3,7.36795E-3,2.7879595E-3,5.0055115E-3,4.3976726E-3,1.2025314E-2,8.925742E-3,4.358658E-3,1.4882872E-2,8.461426E-3],"categories":[],"categories_nodes":[],"categories_segments":[],"categories_sizes":[],"default_left":[0,0,0,0,0,0,0,0,0,0,0,0,0,0,0,0,0,0,0,0,0,0,0,0,0,0,0,0,0,0,0,0,0,0,0,0,0,0,0,0,0,0,0,0,0,0,0,0,0,0,0,0,0,0,0,0,0,0,0,0,0,0,0,0,0,0,0,0,0,0,0,0,0,0,0],"id":21,"left_children":[1,3,5,7,9,11,13,15,17,19,21,23,25,-1,27,29,31,33,35,37,39,41,43,-1,-1,45,-1,-1,-1,-1,47,49,51,53,55,57,59,61,63,65,67,69,-1,71,73,-1,-1,-1,-1,-1,-1,-1,-1,-1,-1,-1,-1,-1,-1,-1,-1,-1,-1,-1,-1,-1,-1,-1,-1,-1,-1,-1,-1,-1,-1],"loss_changes":[3.6145176E1,8.912037E0,7.740364E0,1.4319367E0,9.332986E-1,4.1557693E-1,1.6845131E-1,1.424799E-1,1.8693182E-1,1.0415602E-1,2.0006895E-1,1.1596203E-2,2.7466106E-1,0E0,2.855301E-1,1.0952473E-2,2.9029131E-2,5.8143497E-2,3.859991E-2,5.5387378E-2,5.9207916E-2,9.112191E-2,8.391166E-2,0E0,0E0,9.130287E-2,0E0,0E0,0E0,0E0,2.4303198E-3,2.2262335E-3,7.221982E-3,1.6401228E-2,2.8963916E-2,8.815885E-3,1.1142293E-2,1.7150462E-2,1.6941398E-2,1.8614054E-2,5.1871836E-3,9.7283125E-3,0E0,6.0177088E-2,7.237804E-2,0E0,0E0,0E0,0E0,0E0,0E0,0E0,0E0,0E0,0E0,0E0,0E0,0E0,0E0,0E0,0E0,0E0,0E0,0E0,0E0,0E0,0E0,0E0,0E0,0E0,0E0,0E0,0E0,0E0,0E0],"parents":[2147483647,0,0,1,1,2,2,3,3,4,4,5,5,6,6,7,7,8,8,9,9,10,10,11,11,12,12,14,14,15,15,16,16,17,17,18,18,19,19,20,20,21,21,22,22,25,25,30,30,31,31,32,32,33,33,34,34,35,35,36,36,37,37,38,38,39,39,40,40,41,41,43,43,44,44],"right_children":[2,4,6,8,10,12,14,16,18,20,22,24,26,-1,28,30,32,34,36,38,40,42,44,-1,-1,46,-1,-1,-1,-1,48,50,52,54,56,58,60,62,64,66,68,70,-1,72,74,-1,-1,-1,-1,-1,-1,-1,-1,-1,-1,-1,-1,-1,-1,-1,-1,-1,-1,-1,-1,-1,-1,-1,-1,-1,-1,-1,-1,-1,-1],"split_conditions":[1.1879901E0,3.3039752E-1,3.402425E0,9.228975E-2,5.92635E-1,3.45E1,3.7E1,2.8018415E-2,2.39945E-1,4.5092002E-1,4.8141E-1,1.6258949E0,9.659258E-1,3.204941E-2,1.2246469E-16,7.967263E-3,8E0,1.2E1,2.753975E-1,3.967625E-1,6.49545E-1,2.71E1,8.619E-1,1.7288256E-2,2.5818024E-2,3.402425E0,4.5772865E-3,9.158746E-2,3.4394704E-2,-2.38106E-3,7.5E0,4.8E0,2.5E-6,1.48055E-1,1.78385E-1,2.5881904E-1,2.882775E-1,5E-1,6.0937726E-1,8.2E0,2.3300001E1,-1.8369701E-16,1.9273626E-2,9.603551E-1,1.0520475E0,3.7819173E-2,8.846781E-3,-2.167803E-3,-1.8311561E-3,-1.9821094E-3,-1.5930309E-3,1.1626325E-3,-1.0367305E-3,-7.971016E-4,6.3973435E-5,2.902037E-4,1.4098631E-3,2.2589888E-3,3.557218E-3,4.1130307E-4,1.9271566E-3,3.7059553E-3,5.8327E-3,2.91171E-3,3.900376E-4,1.525292E-3,7.36795E-3,2.7879595E-3,5.0055115E-3,4.3976726E-3,1.2025314E-2,8.925742E-3,4.358658E-3,1.4882872E-2,8.461426E-3],"split_indices":[6,6,6,6,6,0,0,6,6,6,8,6,4,0,4,6,0,0,7,7,8,0,6,0,0,7,0,0,0,0,0,0,8,6,6,5,6,5,8,0,0,5,0,8,7,0,0,0,0,0,0,0,0,0,0,0,0,0,0,0,0,0,0,0,0,0,0,0,0,0,0,0,0,0,0],"split_type":[0,0,0,0,0,0,0,0,0,0,0,0,0,0,0,0,0,0,0,0,0,0,0,0,0,0,0,0,0,0,0,0,0,0,0,0,0,0,0,0,0,0,0,0,0,0,0,0,0,0,0,0,0,0,0,0,0,0,0,0,0,0,0,0,0,0,0,0,0,0,0,0,0,0,0],"sum_hessian":[3.378E3,3.316E3,6.2E1,3.016E3,3E2,5.2E1,1E1,2.408E3,6.08E2,1.8E2,1.2E2,3.2E1,2E1,2E0,8E0,1.904E3,5.04E2,4.85E2,1.23E2,9.5E1,8.5E1,3E1,9E1,1.1E1,2.1E1,1.9E1,1E0,6E0,2E0,1.491E3,4.13E2,2.3E2,2.74E2,2.25E2,2.6E2,7.4E1,4.9E1,5.7E1,3.8E1,6.4E1,2.1E1,2E1,1E1,6.1E1,2.9E1,1.8E1,1E0,2.79E2,1.34E2,1.05E2,1.25E2,3E0,2.71E2,1.29E2,9.6E1,1.74E2,8.6E1,3.1E1,4.3E1,2.4E1,2.5E1,2.7E1,3E1,2.9E1,9E0,2E0,6.2E1,1.3E1,8E0,2E0,1.8E1,4.9E1,1.2E1,1.4E1,1.5E1],"tree_param":{"num_deleted":"0","num_feature":"9","num_nodes":"75","size_leaf_vector":"1"}},{"base_weights":[2.0340902E-3,-1.4799975E-2,6.856365E-1,-3.101125E-2,1.3022624E-1,5.1529837E-1,1.5501009E0,-4.009337E-2,1.4625752E-2,9.219058E-2,2.0218845E-1,4.12695E-1,6.834766E-1,3.9508384E-2,9.0002626E-2,-4.3453697E-2,-2.1586036E-2,3.5482985E-3,3.541549E-2,6.621802E-2,1.241131E-1,1.5140975E-1,2.4948116E-1,1.2989382E-2,2.2951074E-2,9.204151E-3,3.483073E-2,-4.50246E-2,-3.630463E-2,-1.7633585E-2,-2.9893849E-2,-6.6638957E-3,1.1270723E-2,5.3195626E-2,1.9183023E-2,2.3276582E-2,7.6291196E-2,1.0484179E-1,1.5439029E-1,2.545105E-3,1.5596649E-1,1.9656527E-1,2.763585E-1,-2.2965923E-3,-2.1676337E-3,-1.7673634E-3,-2.0950062E-3,-1.1995622E-3,-5.5470876E-4,-1.7985961E-3,-1.381801E-3,-8.4962597E-4,-5.751393E-5,1.5493754E-4,8.842107E-4,2.1958498E-3,3.6297117E-3,-8.282764E-5,1.2314857E-3,1.7837331E-3,-1.3641521E-4,5.3643375E-3,3.5213248E-3,5.5462853E-3,1.4278521E-3,7.829159E-3,1.9409836E-3,8.165755E-3,4.112262E-3,2.8120892E-3,1.0019358E-2,1.2059644E-2,1.7752808E-2],"categories":[],"categories_nodes":[],"categories_segments":[],"categories_sizes":[],"default_left":[0,0,0,0,0,0,0,0,0,0,0,0,0,0,0,0,0,0,0,0,0,0,0,0,0,0,0,0,0,0,0,0,0,0,0,0,0,0,0,0,0,0,0,0,0,0,0,0,0,0,0,0,0,0,0,0,0,0,0,0,0,0,0,0,0,0,0,0,0,0,0,0,0],"id":22,"left_children":[1,3,5,7,9,11,13,15,17,19,21,23,25,-1,-1,27,29,31,33,35,37,39,41,-1,-1,-1,-1,43,45,47,49,51,53,55,57,59,61,63,65,-1,67,69,71,-1,-1,-1,-1,-1,-1,-1,-1,-1,-1,-1,-1,-1,-1,-1,-1,-1,-1,-1,-1,-1,-1,-1,-1,-1,-1,-1,-1,-1,-1],"loss_changes":[3.926328E1,7.833068E0,1.1275841E1,1.2423704E0,8.9829874E-1,9.2582893E-1,1.0469627E0,1.5447664E-1,1.1456241E-1,1.7501462E-1,2.3839426E-1,2.0660067E-1,3.578949E-2,0E0,0E0,2.2106886E-2,1.214765E-2,2.5784414E-2,4.891002E-2,5.1861286E-2,4.0994763E-2,1.8624187E-2,2.8167248E-2,0E0,0E0,0E0,0E0,6.313324E-4,5.867481E-4,1.0709718E-2,6.938353E-4,8.010132E-3,9.693628E-3,1.1571243E-2,1.0483418E-2,8.157597E-3,1.0622144E-2,2.607119E-2,3.0450225E-3,0E0,1.6364336E-2,1.064837E-3,1.3991356E-2,0E0,0E0,0E0,0E0,0E0,0E0,0E0,0E0,0E0,0E0,0E0,0E0,0E0,0E0,0E0,0E0,0E0,0E0,0E0,0E0,0E0,0E0,0E0,0E0,0E0,0E0,0E0,0E0,0E0,0E0],"parents":[2147483647,0,0,1,1,2,2,3,3,4,4,5,5,6,6,7,7,8,8,9,9,10,10,11,11,12,12,15,15,16,16,17,17,18,18,19,19,20,20,21,21,22,22,27,27,28,28,29,29,30,30,31,31,32,32,33,33,34,34,35,35,36,36,37,37,38,38,40,40,41,41,42,42],"right_children":[2,4,6,8,10,12,14,16,18,20,22,24,26,-1,-1,28,30,32,34,36,38,40,42,-1,-1,-1,-1,44,46,48,50,52,54,56,58,60,62,64,66,-1,68,70,72,-1,-1,-1,-1,-1,-1,-1,-1,-1,-1,-1,-1,-1,-1,-1,-1,-1,-1,-1,-1,-1,-1,-1,-1,-1,-1,-1,-1,-1,-1],"split_conditions":[2.4687016E0,1.0742527E0,6.076273E0,5.7978755E-1,5.712925E-1,3.8087301E0,3.402425E0,3.4960213E-1,8.493964E-1,1.3682551E0,1.6085476E0,9.5896995E-1,7.2212255E-1,3.9508384E-2,9.0002626E-2,1.8700726E-1,1.22E1,1.294225E-1,1.82E1,1.6642E-1,1.734451E0,1.1250731E0,-2.5881904E-1,1.2989382E-2,2.2951074E-2,9.204151E-3,3.483073E-2,4.0901773E-2,1.2E1,4.4205916E-1,2.87225E-2,6.37925E-2,7.0420593E-1,3.698325E-1,1.03842504E-1,2.94E1,1.43E1,9.659258E-1,6.49545E-1,2.545105E-3,2.94E1,-7.0710677E-1,2.142171E0,-2.2965923E-3,-2.1676337E-3,-1.7673634E-3,-2.0950062E-3,-1.1995622E-3,-5.5470876E-4,-1.7985961E-3,-1.381801E-3,-8.4962597E-4,-5.751393E-5,1.5493754E-4,8.842107E-4,2.1958498E-3,3.6297117E-3,-8.282764E-5,1.2314857E-3,1.7837331E-3,-1.3641521E-4,5.3643375E-3,3.5213248E-3,5.5462853E-3,1.4278521E-3,7.829159E-3,1.9409836E-3,8.165755E-3,4.112262E-3,2.8120892E-3,1.0019358E-2,1.2059644E-2,1.7752808E-2],"split_indices":[1,1,1,1,6,1,6,1,1,1,1,6,6,0,0,1,0,6,0,6,1,1,4,0,0,0,0,1,0,1,6,6,1,6,6,0,0,4,8,0,0,5,1,0,0,0,0,0,0,0,0,0,0,0,0,0,0,0,0,0,0,0,0,0,0,0,0,0,0,0,0,0,0],"split_type":[0,0,0,0,0,0,0,0,0,0,0,0,0,0,0,0,0,0,0,0,0,0,0,0,0,0,0,0,0,0,0,0,0,0,0,0,0,0,0,0,0,0,0,0,0,0,0,0,0,0,0,0,0,0,0,0,0,0,0,0,0,0,0,0,0,0,0,0,0,0,0,0,0],"sum_hessian":[3.41E3,3.329E3,8.1E1,2.995E3,3.34E2,6.9E1,1.2E1,2.498E3,4.97E2,2.2E2,1.14E2,4.5E1,2.4E1,4E0,8E0,2.113E3,3.85E2,3.25E2,1.72E2,1.23E2,9.7E1,5.7E1,5.7E1,1.2E1,3.3E1,1E0,2.3E1,1.728E3,3.85E2,2.63E2,1.22E2,1.4E2,1.85E2,8.1E1,9.1E1,2.4E1,9.9E1,6.2E1,3.5E1,3E0,5.4E1,2.2E1,3.5E1,1.103E3,6.25E2,3.35E2,5E1,1.32E2,1.31E2,2.9E1,9.3E1,4.8E1,9.2E1,8.2E1,1.03E2,5.7E1,2.4E1,1.9E1,7.2E1,1.6E1,8E0,1.3E1,8.6E1,5.7E1,5E0,3.4E1,1E0,4.8E1,6E0,1E0,2.1E1,2.7E1,8E0],"tree_param":{"num_deleted":"0","num_feature":"9","num_nodes":"73","size_leaf_vector":"1"}},{"base_weights":[2.1525952E-3,-1.1422436E-2,7.458223E-1,-2.9383741E-2,1.3856794E-1,5.568707E-1,1.3385363E0,-3.875947E-2,1.2551448E-2,1.0815002E-1,2.821057E-1,4.3334356E-1,3.3400264E-2,3.4261234E-2,7.5690545E-2,-4.1633774E-2,-2.3698628E-2,2.1893783E-3,3.8073517E-2,8.739121E-2,1.8545777E-1,2.0918196E-1,3.626415E-1,6.4214687E-3,4.5259953E-1,-4.2837415E-2,-3.5813257E-2,-2.687064E-2,-1.4654934E-2,-3.9903247E-3,1.6892334E-2,2.3298299E-2,5.7450224E-2,6.4024866E-2,1.2034456E-1,1.4465576E-1,1.0064207E-2,7.015155E-3,1.1646337E-2,3.0167672E-1,2.2025961E-2,1.7382948E-2,5.2272475E-1,-2.1809756E-3,-2.0644905E-3,-1.9072518E-3,-1.6850833E-3,-1.0888864E-3,-1.4788191E-3,-8.0501457E-4,-2.1656498E-4,-6.446478E-4,1.3986365E-5,1.6379195E-3,1.5711114E-4,1.5266573E-5,1.4090245E-3,2.5176567E-3,4.8208437E-3,1.9477665E-3,3.627951E-3,4.306105E-3,6.6941543E-3,7.7633685E-3,3.8761385E-3,1.5468346E-2,3.889078E-3,6.3965917E-3,2.7248159E-2],"categories":[],"categories_nodes":[],"categories_segments":[],"categories_sizes":[],"default_left":[0,0,0,0,0,0,0,0,0,0,0,0,0,0,0,0,0,0,0,0,0,0,0,0,0,0,0,0,0,0,0,0,0,0,0,0,0,0,0,0,0,0,0,0,0,0,0,0,0,0,0,0,0,0,0,0,0,0,0,0,0,0,0,0,0,0,0,0,0],"id":23,"left_children":[1,3,5,7,9,11,13,15,17,19,21,23,-1,-1,-1,25,27,29,31,33,35,37,39,-1,41,43,45,47,49,51,53,55,57,59,61,63,-1,-1,-1,65,-1,-1,67,-1,-1,-1,-1,-1,-1,-1,-1,-1,-1,-1,-1,-1,-1,-1,-1,-1,-1,-1,-1,-1,-1,-1,-1,-1,-1],"loss_changes":[3.6604126E1,9.5974865E0,6.534233E0,1.2511697E0,1.6329823E0,4.106598E-1,6.803322E-1,1.1156583E-1,1.5383321E-1,4.9091482E-1,3.1175804E-1,1.004014E-1,0E0,0E0,0E0,1.3752699E-2,1.1625946E-2,3.777426E-2,4.67591E-2,1.8556488E-1,1.3502359E-2,2.78337E-2,9.539366E-3,0E0,2.2444725E-3,3.812313E-4,5.854666E-4,3.613934E-3,1.5865341E-3,1.1141913E-2,2.6730746E-2,1.0880228E-2,1.50566995E-2,2.9051602E-2,3.619182E-2,3.6358237E-3,0E0,0E0,0E0,1.0372877E-2,0E0,0E0,4.4416428E-2,0E0,0E0,0E0,0E0,0E0,0E0,0E0,0E0,0E0,0E0,0E0,0E0,0E0,0E0,0E0,0E0,0E0,0E0,0E0,0E0,0E0,0E0,0E0,0E0,0E0,0E0],"parents":[2147483647,0,0,1,1,2,2,3,3,4,4,5,5,6,6,7,7,8,8,9,9,10,10,11,11,15,15,16,16,17,17,18,18,19,19,20,20,21,21,22,22,24,24,25,25,26,26,27,27,28,28,29,29,30,30,31,31,32,32,33,33,34,34,35,35,39,39,42,42],"right_children":[2,4,6,8,10,12,14,16,18,20,22,24,-1,-1,-1,26,28,30,32,34,36,38,40,-1,42,44,46,48,50,52,54,56,58,60,62,64,-1,-1,-1,66,-1,-1,68,-1,-1,-1,-1,-1,-1,-1,-1,-1,-1,-1,-1,-1,-1,-1,-1,-1,-1,-1,-1,-1,-1,-1,-1,-1,-1],"split_conditions":[2.8739576E0,1.102468E0,6.076273E0,5.3697574E-1,3.057E-1,3.8087301E0,3.98E1,3.0894995E-1,1.08E-1,1.7896118E0,1.9851301E0,1.39975E-1,3.3400264E-2,3.4261234E-2,7.5690545E-2,1.7213942E-1,5.33E-2,8.0584306E-1,9.210692E-1,1.7825E-1,1.7825E-1,1.3192677E0,4.193E-1,6.4214687E-3,3.852E-1,4.199248E-2,1.6475E-2,8.2E0,9.09E-2,8.66325E-2,1.8800001E1,6.657957E-1,2.306E-1,9.4575E-2,1.2775658E0,3.45E1,1.0064207E-2,7.015155E-3,1.1646337E-2,1.898835E0,2.2025961E-2,1.7382948E-2,-1.8369701E-16,-2.1809756E-3,-2.0644905E-3,-1.9072518E-3,-1.6850833E-3,-1.0888864E-3,-1.4788191E-3,-8.0501457E-4,-2.1656498E-4,-6.446478E-4,1.3986365E-5,1.6379195E-3,1.5711114E-4,1.5266573E-5,1.4090245E-3,2.5176567E-3,4.8208437E-3,1.9477665E-3,3.627951E-3,4.306105E-3,6.6941543E-3,7.7633685E-3,3.8761385E-3,1.5468346E-2,3.889078E-3,6.3965917E-3,2.7248159E-2],"split_indices":[1,1,1,1,2,1,0,1,2,1,1,2,0,0,0,1,2,1,1,2,2,1,2,0,2,1,2,0,2,6,0,1,2,2,1,0,0,0,0,7,0,0,5,0,0,0,0,0,0,0,0,0,0,0,0,0,0,0,0,0,0,0,0,0,0,0,0,0,0],"split_type":[0,0,0,0,0,0,0,0,0,0,0,0,0,0,0,0,0,0,0,0,0,0,0,0,0,0,0,0,0,0,0,0,0,0,0,0,0,0,0,0,0,0,0,0,0,0,0,0,0,0,0,0,0,0,0,0,0,0,0,0,0,0,0,0,0,0,0,0,0],"sum_hessian":[3.624E3,3.56E3,6.4E1,3.18E3,3.8E2,5E1,1.4E1,2.599E3,5.81E2,3.15E2,6.5E1,2.6E1,2.4E1,4E0,1E1,2.181E3,4.18E2,4.14E2,1.67E2,2.5E2,6.5E1,3.6E1,2.9E1,2E0,2.4E1,1.802E3,3.79E2,3.08E2,1.1E2,2.92E2,1.22E2,9.6E1,7.1E1,1.48E2,1.02E2,2.1E1,4.4E1,1.1E1,2.5E1,1.9E1,1E1,1.2E1,1.2E1,1.179E3,6.23E2,1.72E2,2.07E2,1.1E2,1.98E2,9.6E1,1.4E1,9.4E1,1.98E2,5.6E1,6.6E1,1.7E1,7.9E1,6.2E1,9E0,3.9E1,1.09E2,3.1E1,7.1E1,1.7E1,4E0,1.8E1,1E0,1E0,1.1E1],"tree_param":{"num_deleted":"0","num_feature":"9","num_nodes":"69","size_leaf_vector":"1"}},{"base_weights":[1.583062E-3,-1.1704041E-2,7.2621685E-1,-2.8047761E-2,1.2861854E-1,5.03419E-1,1.3770717E0,-3.6111698E-2,1.3400217E-2,9.611079E-2,2.3325743E-1,6.2074205E-3,5.166355E-1,4.067563E-2,1.7250051E0,-3.9390247E-2,-2.0557867E-2,2.6266095E-3,3.7059337E-2,7.8312516E-2,1.5989281E-1,1.9289644E-1,1.6558383E-2,1.5830224E-2,2.688366E-2,4.4885598E-2,9.945166E-2,-2.0401834E-3,-3.3895392E-2,-2.5567811E-2,-1.435261E-2,-3.7555725E-3,1.6621165E-2,2.4014834E-2,5.3440113E-2,5.8684994E-2,1.02501966E-1,1.1668296E-1,9.1487765E-3,1.4650935E-1,1.09437555E-2,-1.7474623E-3,-1.5070637E-3,-1.1408352E-3,-1.5416981E-3,-6.0171506E-4,-9.973907E-4,-1.0896437E-3,-2.7984413E-5,2.7128842E-3,4.8916135E-4,9.538433E-4,2.233891E-3,3.3309453E-3,1.8990692E-3,5.5760937E-3,2.580975E-3,3.957316E-3,5.6490307E-3,3.0495112E-3,6.2386002E-3,7.5641894E-3,6.787136E-4],"categories":[],"categories_nodes":[],"categories_segments":[],"categories_sizes":[],"default_left":[0,0,0,0,0,0,0,0,0,0,0,0,0,0,0,0,0,0,0,0,0,0,0,0,0,0,0,0,0,0,0,0,0,0,0,0,0,0,0,0,0,0,0,0,0,0,0,0,0,0,0,0,0,0,0,0,0,0,0,0,0,0,0],"id":24,"left_children":[1,3,5,7,9,11,13,15,17,19,21,-1,23,-1,25,27,29,31,33,35,37,39,-1,-1,-1,-1,-1,-1,41,43,45,47,49,51,53,55,57,59,-1,61,-1,-1,-1,-1,-1,-1,-1,-1,-1,-1,-1,-1,-1,-1,-1,-1,-1,-1,-1,-1,-1,-1,-1],"loss_changes":[3.4756977E1,8.133685E0,8.732346E0,1.0620108E0,1.2361636E0,1.8649197E-1,1.7339859E0,1.3478327E-1,1.319378E-1,3.098781E-1,2.7992153E-1,0E0,3.1763077E-2,0E0,1.8027878E-1,1.5664339E-2,1.40889585E-2,3.194816E-2,3.333263E-2,1.0033524E-1,3.9491296E-2,4.5057535E-2,0E0,0E0,0E0,0E0,0E0,0E0,7.46727E-4,3.0053258E-3,2.483938E-3,1.4168504E-2,2.8293073E-2,8.534741E-3,1.1934385E-2,4.128146E-2,1.5286803E-2,3.2021403E-3,0E0,1.4448345E-2,0E0,0E0,0E0,0E0,0E0,0E0,0E0,0E0,0E0,0E0,0E0,0E0,0E0,0E0,0E0,0E0,0E0,0E0,0E0,0E0,0E0,0E0,0E0],"parents":[2147483647,0,0,1,1,2,2,3,3,4,4,5,5,6,6,7,7,8,8,9,9,10,10,12,12,14,14,15,15,16,16,17,17,18,18,19,19,20,20,21,21,28,28,29,29,30,30,31,31,32,32,33,33,34,34,35,35,36,36,37,37,39,39],"right_children":[2,4,6,8,10,12,14,16,18,20,22,-1,24,-1,26,28,30,32,34,36,38,40,-1,-1,-1,-1,-1,-1,42,44,46,48,50,52,54,56,58,60,-1,62,-1,-1,-1,-1,-1,-1,-1,-1,-1,-1,-1,-1,-1,-1,-1,-1,-1,-1,-1,-1,-1,-1,-1],"split_conditions":[2.8739576E0,1.102468E0,6.076273E0,5.7978755E-1,2.85475E-1,1.39975E-1,5.55475E-1,3.2800075E-1,1.08E-1,1.734451E0,2.2906268E0,6.2074205E-3,6.8197244E-1,4.067563E-2,2.2133074E0,1.604993E-1,4.5075E-2,8.2014024E-1,9.210692E-1,1.67325E-1,1.7825E-1,1.485654E0,1.6558383E-2,1.5830224E-2,2.688366E-2,4.4885598E-2,9.945166E-2,-2.0401834E-3,2.71E-2,1.23E1,1.12E1,3.6025E-2,1.33E1,1.74675E-1,1.75E1,1.46E1,1.2571907E0,1.7896118E0,9.1487765E-3,1.4515487E0,1.09437555E-2,-1.7474623E-3,-1.5070637E-3,-1.1408352E-3,-1.5416981E-3,-6.0171506E-4,-9.973907E-4,-1.0896437E-3,-2.7984413E-5,2.7128842E-3,4.8916135E-4,9.538433E-4,2.233891E-3,3.3309453E-3,1.8990692E-3,5.5760937E-3,2.580975E-3,3.957316E-3,5.6490307E-3,3.0495112E-3,6.2386002E-3,7.5641894E-3,6.787136E-4],"split_indices":[1,1,1,1,2,2,2,1,2,1,1,0,7,0,8,1,2,1,1,2,2,1,0,0,0,0,0,0,2,0,0,2,0,2,0,0,1,1,0,1,0,0,0,0,0,0,0,0,0,0,0,0,0,0,0,0,0,0,0,0,0,0,0],"split_type":[0,0,0,0,0,0,0,0,0,0,0,0,0,0,0,0,0,0,0,0,0,0,0,0,0,0,0,0,0,0,0,0,0,0,0,0,0,0,0,0,0,0,0,0,0,0,0,0,0,0,0,0,0,0,0,0,0,0,0,0,0,0,0],"sum_hessian":[3.608E3,3.544E3,6.4E1,3.175E3,3.69E2,4.9E1,1.5E1,2.658E3,5.17E2,2.83E2,8.6E1,2E0,4.7E1,7E0,8E0,2.194E3,4.64E2,3.56E2,1.61E2,2.23E2,6E1,6.3E1,2.3E1,6E0,4.1E1,3E0,5E0,1.74E3,4.54E2,2.55E2,2.09E2,2.45E2,1.11E2,9.1E1,7E1,1.25E2,9.8E1,2.3E1,3.7E1,2.5E1,3.8E1,3.48E2,1.06E2,1.71E2,8.4E1,1.5E2,5.9E1,3.6E1,2.09E2,1.6E1,9.5E1,7.5E1,1.6E1,3.6E1,3.4E1,1.3E1,1.12E2,3.3E1,6.5E1,4E0,1.9E1,2.4E1,1E0],"tree_param":{"num_deleted":"0","num_feature":"9","num_nodes":"63","size_leaf_vector":"1"}},{"base_weights":[1.1289798E-3,-9.552506E-3,7.3352164E-1,-2.6298333E-2,1.3161664E-1,5.455549E-1,6.837206E-2,-3.4587536E-2,1.2517592E-2,1.0054778E-1,2.6614198E-1,4.150617E-1,3.196935E-2,-3.7527867E-2,-2.06437E-2,1.2399824E-3,3.4111533E-2,7.03257E-2,1.4187661E-1,1.7389849E-1,3.028756E-1,9.947966E-3,4.5665237E-1,-1.940057E-3,-3.2655593E-2,-2.4601277E-2,-1.4435724E-2,-6.1891302E-3,1.3256604E-2,5.016284E-2,1.992892E-2,5.7330538E-2,1.01307265E-1,1.2839432E-1,1.0819317E-2,9.569242E-3,3.8083964E-3,1.3214362E-2,1.888563E-2,5.5645886E-3,2.3612848E-2,-1.635802E-3,-1.4240295E-4,-1.0592308E-3,-1.4166451E-3,-1.1453828E-3,-6.025064E-4,4.2351145E-5,-6.34564E-4,1.11616064E-4,9.712469E-4,1.5439552E-3,2.9558956E-3,-1.7202224E-4,1.6642206E-3,-5.242843E-4,2.9810597E-3,5.9651164E-3,4.1770986E-3,5.540471E-3,7.819883E-3],"categories":[],"categories_nodes":[],"categories_segments":[],"categories_sizes":[],"default_left":[0,0,0,0,0,0,0,0,0,0,0,0,0,0,0,0,0,0,0,0,0,0,0,0,0,0,0,0,0,0,0,0,0,0,0,0,0,0,0,0,0,0,0,0,0,0,0,0,0,0,0,0,0,0,0,0,0,0,0,0,0],"id":25,"left_children":[1,3,5,7,9,11,-1,13,15,17,19,21,-1,23,25,27,29,31,33,35,37,-1,39,-1,41,43,45,47,49,51,53,55,57,59,-1,-1,-1,-1,-1,-1,-1,-1,